/**
 * ,---------,       ____  _ __
 * |  ,-^-,  |      / __ )(_) /_______________ _____  ___
 * | (  O  ) |     / __  / / __/ ___/ ___/ __ `/_  / / _ \
 * | / ,--´  |    / /_/ / / /_/ /__/ /  / /_/ / / /_/  __/
 *    +------`   /_____/_/\__/\___/_/   \__,_/ /___/\___/
 *
 * Crazyflie control firmware
 *
 * Copyright (C) 2019 Bitcraze AB
 *
 * This program is free software: you can redistribute it and/or modify
 * it under the terms of the GNU General Public License as published by
 * the Free Software Foundation, in version 3.
 *
 * This program is distributed in the hope that it will be useful,
 * but WITHOUT ANY WARRANTY; without even the implied warranty of
 * MERCHANTABILITY or FITNESS FOR A PARTICULAR PURPOSE. See the
 * GNU General Public License for more details.
 *
 * You should have received a copy of the GNU General Public License
 * along with this program. If not, see <http://www.gnu.org/licenses/>.
 *
 *
 * hello_world.c - App layer application of a simple hello world debug print every
 *   2 seconds.
 */


#include <string.h>
#include <stdint.h>
#include <stdbool.h>

#include "app.h"

#include "FreeRTOS.h"
#include "task.h"

#include "debug.h"
#include "radiolink.h"
#include "param.h"
#include "log.h"
#include "configblock.h"
#include "stabilizer_types.h"
#include "commander.h"
#include "estimator_kalman.h"
#include "stabilizer.h"
#include "math3d.h"
#include "../include/coll_avoid_main.h"
#include "motors.h"

#define NGHBRS 6
#define NGHBRSDIM 6 
#define NDRNS 8


void networkEvaluate(control_t_n* control_n, const float* state_array);
int main_nn(float *outdatav);
Vector3 getPosition(void);
Vector3 getVeloc(void);
float clip(float val, float min, float max);

float linear(float num) {
	return num;
}


float sigmoid(float num) {
	return 1 / (1 + exp(-num));
}


float relu(float num) {
	if (num > 0) {
		return num;
	} else {
		return 0;
	}
}

//static const int structure [6][2] = {{6, 8},{8, 8},{18, 16},{16, 16},{24, 32},{32, 4}};


static const int NEIGHBORS = NGHBRS;
static const int NBR_DIM = NGHBRSDIM; 
static const int NUMQUADS = NDRNS; 
static int farthestNeighb = 0;
static int lastAdded = 1;
static int timer = 0;
static PacketData ownPacket;
uint8_t highlvl = 0;

// static float output_0[8];
// static float output_1[8];
// static float output_2[16];
// static float output_3[16];
// static float inputff[24];
// static float output_4[32];
// static float output_5[4];


static float mototrKValue = 1.0f;
static float thrusts[4]   = {0.f, 0.f, 0.f, 0.f};
static uint16_t thrustsInt[4];
static uint16_t thrustsToMotor[4];
static float dronesInfo[NDRNS][NGHBRSDIM];
static float kNearestArr[NGHBRS][NGHBRSDIM];
static float ownTarget[3] = {.0f, 0.f, .5f};
static struct mat33 rot;
static float state_array[18];
static int state = 0;

// static const float actor_encoder_neighbor_encoder_embedding_mlp_0_weight[6][8] = {{0.21359284222126007,-0.4538440406322479,-0.2422761619091034,-0.5552499890327454,-0.03918301314115524,-0.36220425367355347,-0.032879799604415894,0.8212265372276306},{0.5609453320503235,-0.23872090876102448,-0.40244340896606445,0.874248743057251,0.8317944407463074,-0.397484689950943,0.05349314957857132,0.2969242334365845},{-0.2041160762310028,0.16554142534732819,0.4680391550064087,0.3058367669582367,-0.12677958607673645,0.6079744100570679,0.32356739044189453,0.1230030357837677},{-0.02884783409535885,-0.11779415607452393,0.47405141592025757,-0.25106486678123474,-0.22970028221607208,0.05460777133703232,0.0032763113267719746,-0.023268748074769974},{-0.07154734432697296,-0.26773878931999207,0.4318738579750061,0.27663111686706543,0.04820935055613518,-0.5664815306663513,0.224876269698143,-0.156062051653862},{0.552703857421875,0.21211561560630798,0.22866329550743103,-0.05584863945841789,0.1783255785703659,-0.30069684982299805,0.18963570892810822,-0.18775871396064758}};
// static const float actor_encoder_neighbor_encoder_embedding_mlp_2_weight[8][8] = {{-0.5495797991752625,0.08843397349119186,-0.09142577648162842,-0.1522008627653122,0.11858966946601868,-0.4249255061149597,0.47647035121917725,-0.08108936995267868},{-0.20631779730319977,-0.6059369444847107,0.14184914529323578,0.2073555290699005,-0.0045618582516908646,0.20819319784641266,0.25239837169647217,-0.19219662249088287},{0.5385321974754333,-0.4897637367248535,0.24545995891094208,0.3716098368167877,0.12931479513645172,-0.23101522028446198,0.06264469027519226,-0.04783981665968895},{-0.5686181783676147,-0.32159873843193054,0.04316963627934456,-0.10211721062660217,0.448222279548645,0.2838703989982605,-0.4258054792881012,-0.7581176161766052},{0.36119577288627625,0.0776732787489891,0.16968803107738495,0.4273620843887329,-0.5455344915390015,-0.011514242738485336,0.1261296272277832,-0.6287807822227478},{0.16812220215797424,-0.5987513065338135,-0.5506699681282043,-0.3428089916706085,0.11186440289020538,0.2874908149242401,0.1036437451839447,0.04798097535967827},{-0.32798632979393005,0.6131054162979126,0.08510614186525345,0.03984559699892998,-0.3660063147544861,0.2982746660709381,-0.24377533793449402,0.3775854706764221},{-0.13174445927143097,0.2836715877056122,-0.5421534180641174,-0.3647713363170624,-0.48485371470451355,0.006681948900222778,-0.6229231357574463,-0.15560099482536316}};
// static const float actor_encoder_self_encoder_0_weight[18][16] = {{0.3534250259399414,0.07726674526929855,0.417980432510376,-0.4704107642173767,-0.12585657835006714,0.05679035559296608,-0.36289361119270325,0.0762062817811966,-0.28458666801452637,0.21932971477508545,-0.021251104772090912,0.11808915436267853,0.33391472697257996,-0.0921730026602745,0.3918190896511078,0.08977065980434418},{0.37024006247520447,0.3018256723880768,-0.10385818034410477,-0.14570274949073792,0.36486196517944336,0.07899606972932816,-0.3159993290901184,-0.22725865244865417,0.3146916329860687,-0.11718521267175674,-0.3941173553466797,0.11135893315076828,0.1506274789571762,-0.46852797269821167,-0.26415228843688965,0.09436849504709244},{0.013292369432747364,-0.16876456141471863,-0.2889740467071533,0.03231971710920334,0.22380557656288147,-0.07408387959003448,0.23471152782440186,0.359333872795105,-0.647071123123169,0.3363908529281616,0.2322816103696823,-0.020493997260928154,0.009624381549656391,-0.3000594675540924,-0.40266841650009155,0.4297749102115631},{-0.19871731102466583,0.16598393023014069,0.27001896500587463,-0.3840053379535675,-0.10266510397195816,0.024324286729097366,-0.2617097496986389,-0.18603472411632538,0.15058009326457977,0.18916288018226624,-0.024257803335785866,0.15787649154663086,0.24676325917243958,-0.17241720855236053,-0.256512314081192,-0.0038137834053486586},{-0.08001365512609482,0.214518740773201,-0.11695513129234314,0.08993449807167053,0.28871551156044006,0.06845496594905853,0.08776462078094482,-0.11941234022378922,0.1534181535243988,0.0989588126540184,-0.23234812915325165,0.39085525274276733,0.22539474070072174,-0.4548881947994232,0.046435531228780746,0.12514914572238922},{-0.2997112572193146,-0.22607704997062683,0.22639696300029755,0.3129741847515106,0.029969388619065285,0.2570953667163849,0.16354037821292877,-0.07537820190191269,-0.3102550208568573,-0.08851766586303711,0.46403440833091736,-0.07637099921703339,0.015932561829686165,0.06517067551612854,-0.12483134120702744,0.012192751280963421},{-0.043773259967565536,-0.38628560304641724,-0.09830756485462189,-0.2850930988788605,0.09269536286592484,0.6702038049697876,-0.33950334787368774,0.10630761086940765,0.3328753709793091,0.25525933504104614,0.27684226632118225,0.39873969554901123,-0.2653537690639496,0.22605262696743011,0.25265246629714966,0.0012686612317338586},{0.21413207054138184,-0.23604175448417664,0.08626111596822739,0.2871570289134979,0.14201965928077698,0.7322676777839661,-0.2417631596326828,0.029389210045337677,-0.2439723014831543,-0.34768232703208923,-0.2984673082828522,-0.11719312518835068,0.5113348960876465,0.037843745201826096,0.03822537511587143,0.005533345974981785},{0.6047992706298828,0.5136471390724182,0.18159551918506622,-0.2703622281551361,-0.4026038348674774,0.08715210855007172,-0.32022881507873535,0.2782062590122223,-0.4647549092769623,0.48093143105506897,-0.041232023388147354,0.0379103347659111,-0.014969379641115665,0.17695258557796478,0.12516158819198608,-0.04941307753324509},{-0.4279153645038605,0.031377166509628296,-0.027873843908309937,0.008757147938013077,0.4234614670276642,-0.22309470176696777,0.1135760247707367,0.08632385730743408,-0.08248553425073624,-0.054246824234724045,-0.007896700873970985,-0.07376251369714737,-0.7731735706329346,0.21417850255966187,-0.02607044018805027,-0.5163037180900574},{-0.16482242941856384,-0.24814386665821075,-0.038578275591135025,-0.1007436066865921,0.43460842967033386,0.5526248216629028,-0.1452643722295761,0.1517864316701889,-0.11206987500190735,0.2686925232410431,-0.1253616064786911,0.3147825002670288,-0.05386589840054512,-0.4286360740661621,-0.08920839428901672,-0.19434146583080292},{-0.27333641052246094,0.46354976296424866,-0.07144460827112198,0.25647348165512085,0.21419116854667664,0.21980541944503784,0.1964554488658905,-0.2624400556087494,-0.6992827653884888,-0.316272109746933,-0.26092857122421265,0.18174248933792114,-0.06656765192747116,-0.8178752660751343,-0.34097522497177124,-0.05939096212387085},{0.6763637065887451,0.15110674500465393,0.1015172079205513,-0.9188718199729919,-0.20992127060890198,-0.5509308576583862,-0.026164576411247253,0.18511687219142914,-0.024064576253294945,0.24611282348632812,0.42230087518692017,-0.5926126837730408,0.17308703064918518,0.0958852544426918,-0.38884493708610535,-0.03177782520651817},{-0.42281752824783325,0.36795201897621155,0.648375928401947,-0.37371617555618286,0.13977517187595367,0.17495188117027283,-0.25579172372817993,0.31746190786361694,-0.01612223871052265,-0.10146515816450119,0.039513472467660904,0.4191775619983673,-0.04374619945883751,-0.5443557500839233,-0.3215138912200928,-0.14023026823997498},{-0.2865420877933502,0.2845189869403839,0.3754703998565674,0.3340763449668884,0.26411694288253784,0.04195328429341316,0.14419177174568176,-0.09918195754289627,0.3281373381614685,0.31327465176582336,-0.049800507724285126,-0.1505766361951828,0.11832842975854874,0.5148211121559143,0.20689557492733002,-0.3635033071041107},{-0.13895216584205627,0.08705727010965347,-0.07646014541387558,-0.21345657110214233,-0.11257860064506531,0.33262789249420166,-0.30907297134399414,-0.33789345622062683,-0.18095549941062927,0.17954444885253906,-0.07397397607564926,0.10906399041414261,-0.29679253697395325,-0.0662384033203125,-0.06735779345035553,0.21174213290214539},{-0.14245207607746124,0.2031826674938202,-0.37740829586982727,0.16097643971443176,0.14668475091457367,0.1465432047843933,0.06152570620179176,-0.2858341932296753,-0.11733689904212952,-0.05336018279194832,-0.2731805443763733,0.2625782787799835,-0.11169824749231339,-0.19140799343585968,0.30148082971572876,0.20679698884487152},{-0.24722373485565186,0.08447127789258957,-0.23638245463371277,-0.25486236810684204,-0.29227980971336365,0.20874382555484772,0.28337496519088745,0.40186595916748047,0.08014392852783203,-0.3381381332874298,0.044775865972042084,-0.4662988483905792,-0.12199926376342773,-0.23520979285240173,-0.1595245599746704,0.37710708379745483}};
// static const float actor_encoder_self_encoder_2_weight[16][16] = {{-0.3885616958141327,-0.2744065821170807,0.1980816274881363,-0.2438502460718155,-0.25967827439308167,-0.09545441716909409,-0.0024363757111132145,-0.43402352929115295,-0.10483679920434952,0.10249875485897064,-0.26287841796875,0.3811351954936981,-0.4168294668197632,-0.05034565553069115,-0.39028608798980713,-0.1172165647149086},{-0.31634700298309326,0.3380756974220276,0.25588080286979675,0.03337842598557472,0.2572733163833618,0.31165292859077454,-0.17036586999893188,0.06350328773260117,-0.32693296670913696,0.26890385150909424,0.4533606171607971,-0.42257627844810486,-0.009110450744628906,0.0003613849403336644,0.08166279643774033,-0.4257141649723053},{-0.4540056586265564,0.09978191554546356,0.046384043991565704,-0.006192916538566351,-0.45144882798194885,0.32885318994522095,0.2410029172897339,-0.4696181118488312,-0.18796280026435852,-0.6052156090736389,0.262057363986969,0.1833745688199997,0.19751760363578796,0.3988628387451172,-0.2962345480918884,-0.1986641138792038},{0.15938425064086914,0.29899677634239197,-0.200739786028862,-0.30197635293006897,-0.10934766381978989,-0.09135977923870087,-0.20752204954624176,-0.0356515571475029,-0.13711878657341003,-0.14055584371089935,-0.3138270974159241,-0.11020679026842117,-0.22524958848953247,-0.47601833939552307,0.3476177155971527,-0.08832971006631851},{0.0395568385720253,0.3979641795158386,-0.30672508478164673,0.4436046779155731,-0.13794894516468048,-0.1060829907655716,-0.09276895970106125,0.07024907320737839,-0.056439608335494995,-0.4303164780139923,-0.28581130504608154,0.20091144740581512,0.11253814399242401,-0.1548215001821518,0.1883871853351593,0.24094869196414948},{0.39224573969841003,-0.22522921860218048,-0.31985199451446533,0.22213895618915558,0.18856821954250336,-0.08251402527093887,0.286557674407959,-0.11342005431652069,-0.4376828670501709,0.20398560166358948,0.014633170329034328,0.2805575132369995,0.09931007772684097,0.012998311780393124,-0.2333219349384308,0.462505042552948},{-0.4314756989479065,0.26383551955223083,0.19337664544582367,-0.16759121417999268,-0.43949130177497864,0.10939858108758926,-0.22956666350364685,0.33666521310806274,0.36648568511009216,-0.09395009279251099,-0.4297545850276947,-0.33618423342704773,-0.32593441009521484,0.2723313570022583,0.25131452083587646,-0.15169256925582886},{-0.08215215802192688,-0.29226383566856384,-0.14536376297473907,-0.16141639649868011,-0.23494823276996613,-0.011788399890065193,0.15802615880966187,-0.4831354320049286,-0.06327017396688461,-0.3876495957374573,-0.10730694979429245,0.207676962018013,-0.36775270104408264,0.37225428223609924,-0.13123708963394165,-0.16491907835006714},{-0.31161826848983765,-0.21394199132919312,0.11643809825181961,-0.161671444773674,-0.45695748925209045,-0.055025044828653336,-0.20452089607715607,0.06387282907962799,0.029224831610918045,-0.34092220664024353,0.3951490819454193,0.34484606981277466,-0.21331840753555298,-0.19157738983631134,0.32839885354042053,0.08136077970266342},{-0.41811028122901917,-0.21046264469623566,-0.364452600479126,0.31266626715660095,-0.12052824348211288,0.012908926233649254,-0.26793333888053894,-0.30493712425231934,0.15293531119823456,-0.012073494493961334,-0.24686414003372192,0.011214877478778362,-0.1962244063615799,0.41634616255760193,0.023079795762896538,0.07075020670890808},{-0.19379331171512604,-0.09691057354211807,0.02040240913629532,-0.24099215865135193,-0.04284270852804184,0.12071165442466736,0.12769731879234314,0.01605209708213806,0.18129824101924896,0.07015062123537064,-0.4427391588687897,0.05351095274090767,0.21623383462429047,0.26290538907051086,-0.12469232827425003,0.11682100594043732},{0.12180135399103165,0.16313773393630981,0.06592673808336258,0.24838222563266754,0.005950933787971735,-0.15926577150821686,-0.3297647535800934,-0.028229113668203354,-0.15026022493839264,-0.0647910088300705,-0.21126292645931244,-0.3025228977203369,-0.006435283925384283,0.18848814070224762,0.2577943503856659,-0.5053821802139282},{-0.2653299570083618,-0.5126988291740417,-0.13214918971061707,-0.3006887435913086,-0.3330136239528656,0.20238910615444183,-0.06904324144124985,-0.4593100845813751,0.2092605084180832,-0.2223382294178009,-0.36993950605392456,0.17108987271785736,-0.4563855826854706,0.01727914623916149,-0.04825844243168831,0.4157928228378296},{0.17286276817321777,-0.19922979176044464,-0.05929545313119888,0.026038488373160362,0.0806557908654213,-0.20447225868701935,-0.11452075839042664,0.3567599356174469,0.5411444902420044,-0.7064991593360901,0.2011350393295288,0.3098343014717102,-0.4423161447048187,0.39850670099258423,0.12643969058990479,-0.3207634389400482},{-0.11049460619688034,-0.10825607180595398,0.42100790143013,0.38347405195236206,0.09984496980905533,-0.2974390685558319,-0.20513169467449188,-0.330783873796463,-0.08383559435606003,0.17500410974025726,0.033921487629413605,-0.17781127989292145,-0.05540448799729347,-0.173259437084198,0.04481162503361702,0.06644108891487122},{0.4017496705055237,0.1049027070403099,0.021925097331404686,-0.1424691379070282,-0.40738800168037415,0.15207724273204803,0.2212950587272644,0.22935320436954498,0.27554306387901306,-0.0016296695685014129,-0.012777735479176044,0.36258450150489807,0.06530029326677322,0.3024411201477051,-0.022172922268509865,0.23302680253982544}};
// static const float actor_encoder_feed_forward_0_weight[24][32] = {{-0.19461052119731903,0.056877247989177704,-0.24224303662776947,0.26091188192367554,-0.22231532633304596,-0.32796964049339294,0.008964316919445992,0.19411705434322357,-0.032863616943359375,-0.11279745399951935,0.10933259129524231,-0.23642447590827942,-0.27901768684387207,0.275662362575531,-0.3781944215297699,-0.21543096005916595,0.08989056199789047,-0.2677547037601471,-0.07198852300643921,-0.20497703552246094,0.03253944590687752,0.08030612766742706,-0.04645492509007454,0.025024015456438065,0.03463730961084366,0.056614238768815994,-0.2867126166820526,0.05865861847996712,0.05579885467886925,-0.0162382610142231,-0.21879607439041138,-0.09164180606603622},{-0.09984598308801651,-0.20026984810829163,-0.14990420639514923,0.08878029137849808,0.14346739649772644,0.08860400319099426,0.26664772629737854,-0.09146999567747116,-0.12322571873664856,-0.05682675167918205,-0.13654257357120514,0.028781283646821976,0.09622664004564285,-0.06662015616893768,-0.28310516476631165,-0.19058673083782196,-0.035045988857746124,0.09583230316638947,0.11202244460582733,-0.12390211969614029,0.11439646780490875,-0.03763112053275108,-0.336473673582077,0.135341614484787,-0.3509056866168976,0.1531098186969757,0.16093769669532776,-0.13861872255802155,0.08292470127344131,-0.04531075805425644,-0.35486727952957153,0.1898549646139145},{-0.1648063361644745,-0.3503730297088623,0.11369967460632324,0.07409750670194626,-0.07024341076612473,-0.2270684540271759,0.06341268122196198,0.1814458668231964,-0.27516865730285645,-0.024797482416033745,0.20441442728042603,-0.31475716829299927,0.36231815814971924,0.5259224772453308,0.3739628195762634,0.2074117213487625,-0.3124798834323883,-0.26072219014167786,-0.04524599760770798,-0.07158614695072174,0.3293212056159973,-0.06440984457731247,0.0015230379067361355,0.19497258961200714,-0.19789256155490875,0.01790681853890419,0.16029857099056244,0.4285334050655365,-0.008951032534241676,-0.1217624768614769,0.29179203510284424,-0.3411955237388611},{-0.15768371522426605,-0.05830875039100647,0.07556614279747009,0.15583139657974243,-0.22433140873908997,0.10764829069375992,0.09593585133552551,-0.19954854249954224,-0.2924821078777313,-0.10227660834789276,-0.3143378794193268,0.15048813819885254,0.19766759872436523,0.09889410436153412,-0.2900354862213135,-0.33037254214286804,0.245106041431427,0.018151897937059402,0.23303265869617462,0.2093912959098816,0.18986837565898895,-0.0367894172668457,0.22773118317127228,0.06496896594762802,-0.31001409888267517,-0.23046725988388062,0.055308979004621506,-0.516303300857544,-0.07466351240873337,-0.1494801938533783,-0.27605530619621277,0.25218629837036133},{-0.05306254327297211,-0.05104398727416992,0.11926301568746567,-0.03750409558415413,-0.007445452269166708,-0.08115163445472717,-0.03417307883501053,0.33636385202407837,0.21504007279872894,0.23895014822483063,-0.08465056121349335,0.28234612941741943,0.04062993824481964,-0.17767301201820374,-0.042945001274347305,0.17876781523227692,0.0738745704293251,-0.10325227677822113,0.05908995121717453,-0.12916764616966248,0.27779027819633484,0.01625952124595642,0.07424505054950714,0.10913487523794174,-0.06479988992214203,-0.2819474935531616,0.17914988100528717,-0.14924608170986176,0.0047095827758312225,-0.20538654923439026,0.11283093690872192,-0.31633806228637695},{-0.11325497925281525,-0.30399468541145325,-0.09611065685749054,0.09832947701215744,-0.0959358960390091,-0.2048647403717041,0.12585128843784332,0.3162052035331726,0.0533708818256855,0.109437495470047,0.17777742445468903,-0.3917675316333771,0.31599190831184387,-0.37022387981414795,-0.10322622209787369,0.2119116634130478,-0.5441847443580627,0.1045469269156456,0.2954944968223572,-0.19696246087551117,0.06476984918117523,0.029416993260383606,0.27031001448631287,0.01644034869968891,0.05005830526351929,0.26857468485832214,0.25446397066116333,-0.10943977534770966,-0.21039411425590515,-0.06183155998587608,0.009905766695737839,0.005441408138722181},{0.04009167477488518,0.4436381459236145,-0.2277158498764038,-0.08230908960103989,0.12487833946943283,-0.14245152473449707,-0.4024001955986023,-0.3001016080379486,0.11593784391880035,0.10985561460256577,0.014932435937225819,-0.21962392330169678,-0.3343122601509094,0.29174235463142395,0.20177797973155975,-0.1572120189666748,-0.3234846293926239,0.23667676746845245,-0.04937693104147911,0.07148120552301407,-0.13744838535785675,0.40165409445762634,0.37937113642692566,-0.2135636955499649,-0.1653520166873932,-0.19623368978500366,0.08377000689506531,-0.286823034286499,0.32322970032691956,0.04472333565354347,-0.2982521951198578,0.2673443853855133},{0.272849977016449,0.06182616949081421,-0.11786273121833801,-0.22512798011302948,0.1827925592660904,-0.05392330512404442,0.042984213680028915,-0.24438026547431946,-0.08762146532535553,-0.2254742532968521,-0.03337986394762993,-0.03678378462791443,0.1959330439567566,0.11881524324417114,-0.3668193221092224,0.2824750244617462,-0.21466903388500214,0.12383738905191422,0.04743233695626259,-0.1650446504354477,-0.12951892614364624,0.14846393465995789,0.019565019756555557,-0.2679748833179474,-0.33841416239738464,0.02104545757174492,-0.4652434289455414,0.17080633342266083,0.0764058381319046,0.15316392481327057,-0.1681666076183319,0.28196170926094055},{0.10208062082529068,0.11287785321474075,-0.32243064045906067,0.056419458240270615,-0.026988014578819275,0.16072838008403778,-0.09424721449613571,-0.22576084733009338,0.004400860518217087,0.15681542456150055,-0.032774318009614944,-0.15087126195430756,0.2520895302295685,-0.09759649634361267,-0.18486015498638153,0.13320724666118622,-0.06921970844268799,-0.17267446219921112,0.20452506840229034,0.07766612619161606,-0.13561247289180756,-0.04527578502893448,-0.024781880900263786,0.27656620740890503,-0.18317483365535736,0.15241841971874237,-0.2530003786087036,0.05841534584760666,0.3085894286632538,-0.04397831857204437,0.04642275720834732,0.030164310708642006},{0.2831608057022095,0.1347329020500183,0.23103877902030945,0.21643513441085815,0.1838257908821106,0.08165993541479111,-0.02316923253238201,0.18230023980140686,-0.044431209564208984,0.10016248375177383,-0.4352608025074005,-0.31625181436538696,-0.24399550259113312,0.20968790352344513,-0.3013242781162262,-0.003179778577759862,-0.34281080961227417,-0.3854557275772095,-0.15370045602321625,-0.09753827005624771,0.01485303696244955,-0.09749197959899902,-0.12132380157709122,0.2667151689529419,-0.07884868234395981,-0.09600774943828583,-0.019537808373570442,0.0017721571493893862,0.056521572172641754,-0.2175867259502411,-0.2025488317012787,0.20348505675792694},{0.1224827691912651,0.13170874118804932,-0.10812146961688995,0.3283030688762665,-0.07807023078203201,-0.13730184733867645,-0.23137427866458893,0.05420616269111633,0.11549648642539978,0.1981012523174286,0.2146415114402771,0.30565178394317627,0.09249532222747803,0.3972783386707306,-0.2578221261501312,-0.099828340113163,0.23078963160514832,-0.17780181765556335,-0.07266586273908615,0.24272632598876953,0.18307079374790192,0.006181804463267326,0.29485756158828735,-0.018994459882378578,0.0524061843752861,-0.2282409518957138,0.21322758495807648,-0.10583138465881348,0.04441776126623154,-0.3167046904563904,0.5109444260597229,-0.022457163780927658},{0.22005271911621094,0.030378803610801697,-0.262067049741745,0.03464255481958389,-0.3036474585533142,-0.09639362245798111,-0.29820090532302856,-0.05480392649769783,-0.010265481658279896,-0.19261205196380615,-0.018681460991501808,0.06398794054985046,-0.12576942145824432,-0.1455061137676239,-0.2437625676393509,-0.08019480109214783,-0.12179265916347504,0.0036801164969801903,-0.19143570959568024,-0.0966583788394928,0.10859706997871399,0.100344717502594,-0.23968303203582764,0.19974219799041748,-0.17552517354488373,0.2900458872318268,0.19638870656490326,-0.09681309759616852,0.08388817310333252,-0.21109101176261902,0.19750341773033142,0.1323513239622116},{-0.18476112186908722,-0.2838776409626007,-0.2107222080230713,-0.16233383119106293,-0.21885012090206146,-0.18131689727306366,0.11594337224960327,0.2719374895095825,-0.04772855341434479,-0.022080300375819206,0.0031431163661181927,0.040896426886320114,0.11507648229598999,0.2793082892894745,-0.03093312308192253,0.0004258581029716879,0.14734618365764618,0.2527995705604553,-0.23888397216796875,-0.004437741357833147,0.32248517870903015,-0.08275798708200455,-0.19004924595355988,0.02949903905391693,0.3207506537437439,-0.16151395440101624,0.10246938467025757,-0.31471291184425354,-0.1216079592704773,0.3150947391986847,-0.08469383418560028,0.06584306061267853},{0.2884197235107422,0.121070496737957,-0.34443485736846924,-0.01335216499865055,-0.11826781928539276,-0.021728960797190666,-0.18864770233631134,-0.09364890307188034,0.22155550122261047,0.03867294639348984,0.01886858232319355,-0.253030925989151,-0.2511328160762787,-0.10959390550851822,0.07663438469171524,-0.06318675726652145,-0.15233229100704193,0.04332450032234192,0.3370204567909241,-0.11375899612903595,-0.13187894225120544,-0.27107366919517517,0.2972175180912018,0.25652939081192017,0.2540724575519562,0.13496997952461243,-0.1965978443622589,-0.057901781052351,0.04751688987016678,-0.23250150680541992,-0.08482175320386887,0.2865670621395111},{0.21421627700328827,-0.44724419713020325,-0.10659050196409225,-0.10843051970005035,-0.27635326981544495,0.1848239004611969,-0.09756279736757278,0.23629997670650482,-0.26666340231895447,-0.06917595118284225,-0.09926780313253403,0.3733595609664917,-0.10521595180034637,-0.002986542647704482,0.02147107571363449,-0.21427784860134125,0.13194353878498077,0.28494319319725037,-0.4027917683124542,0.23385794460773468,-0.15754421055316925,0.003153331344947219,-0.054083436727523804,-0.031558889895677567,-0.4115334749221802,0.18985821306705475,0.07217995077371597,-0.053454723209142685,-0.11546199768781662,0.03896775841712952,0.27361369132995605,-0.12110703438520432},{-0.09736993163824081,0.4374749958515167,0.11575237661600113,-0.14281922578811646,-0.12694567441940308,0.14255954325199127,-0.1478073000907898,-0.3675565719604492,0.012970583513379097,0.3239792287349701,-0.29494786262512207,0.15167967975139618,0.04323858767747879,0.044581636786460876,-0.13327009975910187,-0.2111225426197052,0.08023712038993835,-0.3092591464519501,0.1393834352493286,0.37263453006744385,0.29482582211494446,0.32975444197654724,-0.16634710133075714,-0.22434920072555542,-0.27892929315567017,0.23817148804664612,-0.356035441160202,0.11336040496826172,0.35587987303733826,0.22422552108764648,0.32114049792289734,-0.011892815120518208},{0.027175305411219597,-0.1871354579925537,-0.04182055592536926,-0.18879130482673645,0.21450357139110565,-0.3061821162700653,0.009842859581112862,0.16484011709690094,-0.08618702739477158,0.3644618093967438,-0.29477396607398987,0.27538326382637024,0.10899697989225388,-0.22918370366096497,0.23818092048168182,0.14042158424854279,-0.1441250592470169,0.0626954436302185,-0.1811639964580536,0.09115377813577652,0.028531186282634735,-0.23498991131782532,-0.06950987130403519,-0.21742279827594757,0.32026761770248413,0.31557825207710266,0.10550098121166229,-0.21420705318450928,-0.133165180683136,-0.39514586329460144,-0.01822419837117195,-0.2301657646894455},{0.2608407735824585,0.10710453987121582,-0.3830670714378357,0.16437844932079315,-0.09481792896986008,-0.08786045014858246,0.08314672112464905,0.009425905533134937,-0.1546410769224167,-0.11234217882156372,-0.34347793459892273,-0.00258095795288682,0.18346841633319855,0.18770956993103027,0.16786962747573853,0.11346480250358582,0.12699277698993683,-0.06305723637342453,-0.533643901348114,-0.6369206309318542,0.5204338431358337,0.052866287529468536,-0.07038255035877228,-0.23128823935985565,0.033275943249464035,-0.07959013432264328,-0.020714882761240005,-0.12216213345527649,-0.05946109816431999,-0.28415969014167786,-0.07231801748275757,-0.09195601940155029},{-0.05406060814857483,-0.017492733895778656,0.3066718280315399,0.048467427492141724,0.272430419921875,-0.22832264006137848,-0.026445548981428146,-0.19808970391750336,0.1632586419582367,-0.06893949210643768,-0.10598283261060715,-0.223267063498497,0.061270684003829956,0.12994210422039032,-0.21225981414318085,-0.09707599133253098,0.11051196604967117,0.15202127397060394,-0.03212489187717438,-0.19676199555397034,-0.08218906074762344,0.0008236995781771839,-0.18091389536857605,0.1651851236820221,0.2442353069782257,-0.3100966215133667,-0.07870098203420639,0.19454404711723328,-0.029026081785559654,-0.20465725660324097,0.2732033133506775,-0.1105380430817604},{-0.1251528114080429,0.10137900710105896,0.3169664144515991,-0.1478351354598999,-0.15637388825416565,0.06281770765781403,0.2636268734931946,0.10349104553461075,0.3150130808353424,-0.4536561071872711,0.2675026059150696,0.34401825070381165,-0.1895202398300171,0.15359178185462952,-0.06924524903297424,-0.026105066761374474,-0.14731107652187347,0.24275226891040802,0.04964258149266243,-0.05098668485879898,0.16415508091449738,-0.3911008834838867,0.07671841979026794,-0.016422512009739876,0.06116802245378494,-0.2729967534542084,-0.09466942399740219,0.1805967390537262,-0.07481292635202408,0.058882344514131546,0.21957577764987946,0.23994730412960052},{0.15790288150310516,-0.13163667917251587,0.014656874351203442,0.3125695586204529,0.16176246106624603,-0.556624174118042,0.2520136833190918,-0.24860505759716034,-0.1791282445192337,-0.04249386861920357,-0.28165820240974426,0.06559905409812927,0.14282670617103577,-0.07616302371025085,-0.10412314534187317,-0.1417488306760788,0.056889697909355164,-0.09326943010091782,-0.23689933121204376,0.041143257170915604,-0.015199114568531513,0.121737040579319,0.24728238582611084,0.1320130079984665,-0.053378596901893616,-0.14638057351112366,-0.17450344562530518,0.1986864060163498,0.19627419114112854,-0.41363587975502014,0.10835951566696167,0.0242310743778944},{-0.061278462409973145,0.22438175976276398,0.04732323810458183,-0.18532654643058777,-0.032266490161418915,0.1324205994606018,0.2061547487974167,-0.09459012746810913,0.14860732853412628,-0.01649726927280426,-0.1659657508134842,0.16149041056632996,-0.09562577307224274,0.06981444358825684,0.32919609546661377,0.16227522492408752,0.03468608856201172,0.363923579454422,0.031764429062604904,-0.34774070978164673,0.1503862738609314,-0.3707873225212097,0.11976567655801773,0.18007631599903107,0.11228245496749878,0.2907021641731262,-0.11685367673635483,-0.2646051049232483,-0.05963515117764473,-0.07667925953865051,0.09508496522903442,0.11103826016187668},{-0.026572518050670624,0.15120252966880798,-0.17258763313293457,0.03571747615933418,-0.04520302638411522,-0.2494121491909027,0.4080396294593811,-0.13859610259532928,-0.055179499089717865,-0.12075801938772202,0.2602895498275757,0.23212940990924835,0.056893132627010345,-0.10440827161073685,-0.030596768483519554,0.044051643460989,-0.1870688647031784,0.16234560310840607,-0.03073088452219963,0.155042827129364,0.17713786661624908,-0.38114285469055176,-0.1938813030719757,0.17897172272205353,-0.06131156161427498,0.2386707365512848,0.08541231602430344,-0.1282764971256256,0.21118539571762085,-0.04039260745048523,0.079994335770607,-0.08648014068603516},{-0.1869715005159378,-0.007084268145263195,0.10595104098320007,0.3961544930934906,-0.3482559621334076,0.22868113219738007,-0.20538298785686493,-0.06331637501716614,-0.04387231916189194,0.35067909955978394,-0.028663640841841698,0.0848531648516655,-0.2702348530292511,0.45354124903678894,0.26968592405319214,0.1742113083600998,-0.418872207403183,-0.27359122037887573,0.029170291498303413,0.060631852596998215,0.39481571316719055,0.05187555402517319,-0.023154890164732933,-0.02524305135011673,0.27518555521965027,-0.08352887630462646,-0.2677733898162842,0.27814796566963196,0.2380484640598297,-0.10350771993398666,0.13586392998695374,0.005821188446134329}};
// static const float action_parameterization_distribution_linear_weight[32][4] = {{-0.14921092987060547,-0.03394647315144539,0.19828514754772186,0.307320773601532},{-0.14765729010105133,0.15853387117385864,-0.12788432836532593,-0.17580391466617584},{0.014512604102492332,-0.3806530833244324,0.12416717410087585,0.3946641683578491},{0.4023350477218628,0.2884922921657562,-0.18807318806648254,-0.3008634150028229},{-0.0030238276813179255,-0.17632868885993958,-0.15162880718708038,0.06013604253530502},{0.22126299142837524,-0.21109111607074738,-0.033881451934576035,-0.17742329835891724},{0.13899144530296326,-0.062499117106199265,0.003000435419380665,-0.10182178765535355},{0.1928045153617859,-0.3376479148864746,0.02308722957968712,-0.11754339933395386},{-0.21921290457248688,0.2026197463274002,0.038582999259233475,-0.027007130905985832},{-0.16251687705516815,0.003154387231916189,-0.3285941779613495,0.01319277286529541},{0.035902708768844604,-0.06216251850128174,0.32829833030700684,0.047110363841056824},{0.07500432431697845,-0.2200492024421692,0.09273819625377655,0.539750874042511},{-0.05007590353488922,-0.3816557228565216,0.2866973280906677,0.2762155532836914},{0.036535073071718216,0.565462052822113,0.08770762383937836,0.1439746618270874},{0.2236425131559372,-0.11226388812065125,0.19689789414405823,-0.06939513981342316},{0.15929445624351501,-0.06346026062965393,0.1965656578540802,-0.2996605634689331},{-0.0575210303068161,0.019717667251825333,-0.18579085171222687,0.28222206234931946},{0.36104851961135864,-0.39329418540000916,-0.2171604484319687,-0.2498330920934677},{-0.21093536913394928,0.033673521131277084,-0.04354952648282051,0.12500277161598206},{-0.23116084933280945,0.03588153421878815,0.3155681788921356,0.12303483486175537},{0.2933182120323181,0.3574076294898987,-0.19789202511310577,0.12692813575267792},{-0.09533217549324036,0.18021142482757568,-0.1221034824848175,-0.22038088738918304},{-0.005528343375772238,-0.133926123380661,-0.10894658416509628,-0.1653752326965332},{-0.3682636618614197,-0.05113867297768593,0.16992159187793732,0.22920067608356476},{-0.33320942521095276,0.13898205757141113,-0.27089551091194153,-0.30179110169410706},{-0.35179850459098816,0.000636366952676326,-0.17746609449386597,-0.1251995712518692},{0.2473617047071457,-0.2102666050195694,-0.12321626394987106,-0.17922504246234894},{0.13390903174877167,-0.06765355169773102,0.44224950671195984,0.07194460928440094},{-0.24823367595672607,0.10895340889692307,0.05069680139422417,-0.16247840225696564},{0.08730766177177429,0.08494550734758377,0.20056970417499542,-0.0759408101439476},{0.10697536170482635,0.34631916880607605,0.4485290050506592,0.1760244518518448},{-0.28045082092285156,0.20192381739616394,-0.41327959299087524,-0.11593469977378845}};
// static const float actor_encoder_neighbor_encoder_embedding_mlp_0_bias[8] = {-0.26289618015289307,0.10508207976818085,-0.031014038249850273,0.11806268990039825,0.07627365738153458,0.3337174952030182,0.29569658637046814,0.13612361252307892};
// static const float actor_encoder_neighbor_encoder_embedding_mlp_2_bias[8] = {-0.12448664754629135,0.29047200083732605,0.05008436739444733,0.19515034556388855,0.1967567801475525,-0.051993478089571,0.1853872537612915,0.1825409233570099};
// static const float actor_encoder_self_encoder_0_bias[16] = {-0.10594189912080765,0.13111381232738495,0.2556964159011841,0.1076640784740448,0.21008120477199554,-0.3425554931163788,0.1663607954978943,-0.16064561903476715,0.20466238260269165,0.03853846341371536,0.1326124221086502,-0.08438795059919357,-0.11811986565589905,0.11004453152418137,-0.020522059872746468,-0.4082850217819214};
// static const float actor_encoder_self_encoder_2_bias[16] = {-0.22803206741809845,0.07228226214647293,0.19140146672725677,0.11185378581285477,-0.2276783436536789,0.10936661064624786,0.18916204571723938,0.11423534154891968,0.15396837890148163,-0.5262419581413269,0.2583760917186737,-0.14349044859409332,0.08394543826580048,-0.1217927485704422,0.15729813277721405,-0.030873842537403107};
// static const float actor_encoder_feed_forward_0_bias[32] = {-0.05834797024726868,-0.06533753871917725,-0.0036042402498424053,0.08131527900695801,0.02414935827255249,0.031696464866399765,-0.006771141197532415,0.1679222732782364,-0.1052170917391777,-0.043798577040433884,0.14990781247615814,0.16203279793262482,0.07361716032028198,0.09029342234134674,0.055774055421352386,0.22206465899944305,0.1207592636346817,0.12316183000802994,-0.23527278006076813,0.09810440242290497,0.03454001247882843,-0.26727840304374695,0.05736329406499863,-0.09735351800918579,0.1496526002883911,-0.031371165066957474,-0.04036497324705124,0.026664962992072105,0.18575438857078552,-0.2407248169183731,0.059190694242715836,0.12196315079927444};
// static const float action_parameterization_distribution_linear_bias[4] = {0.05374455824494362,0.0002308706025360152,-0.03583519533276558,-0.029136192053556442};

static const int structure [11][2] = {{24, 8},{8, 8}, {8, 8},{8, 8}, {16, 8},{8, 8},{8, 1}, {18, 16},{16, 16}, {24, 32},{32, 4}};
static float output_0[8];
static float output_1[8];
static float output_2[8];
static float output_3[8];
static float output_4[8];
static float output_5[8];
static float output_6[1];
static float output_7[16];
static float output_8[16];
static float output_9[32];
static float output_10[4];
static float output_11[4];
static float inp_H[24];
static float inp_C[16];

static const float actor_encoder_neighbor_encoder_embedding_mlp_0_weight[24][8] = {{0.0018834988586604595,0.00019355746917426586,0.0012736256467178464,-7.663221913389862e-05,0.0006788065657019615,0.0023827552795410156,0.002480508992448449,-0.0006829112535342574},{-0.00018717904458753765,0.0028432172257453203,-0.0007930357242003083,0.0010711327195167542,-6.430707435356453e-05,0.0025123285595327616,0.0018533871043473482,0.0023539874237030745},{-0.0022397160064429045,-0.001482645282521844,-0.0027445985469967127,0.0006647391710430384,0.001923943986184895,0.00219094380736351,0.006751410197466612,-0.0019117302726954222},{0.00033832216286100447,-0.0019696380477398634,-0.0002782565134111792,0.0030597876757383347,-0.0005759710329584777,0.0006008085911162198,0.00032785983057692647,-0.001706905197352171},{-0.0006808222969993949,0.0020225420594215393,-0.002801342634484172,0.0010299707064405084,0.005427288357168436,-0.0011309323599562049,0.003235605778172612,-0.0008690271060913801},{-0.0072135948576033115,-0.0016519411001354456,-0.0002920289698522538,-0.00021538679720833898,-0.00359529722481966,0.0010081626242026687,0.0076141878962516785,-0.0014852527529001236},{0.16905735433101654,0.13465222716331482,-0.12433727830648422,0.058812350034713745,0.22236065566539764,-0.026393834501504898,0.07696253061294556,0.08344369381666183},{-0.19141313433647156,0.027432313188910484,0.05826396122574806,-0.0517037995159626,-0.047265321016311646,-0.06564246118068695,0.11562049388885498,0.044178757816553116},{-0.0003167079412378371,-0.017500441521406174,-9.751004108693451e-05,0.0033946619369089603,-0.008889678865671158,0.00809502974152565,0.0007276231190189719,-0.006759850773960352},{-0.1844177097082138,0.030419208109378815,0.06129735708236694,-0.054887644946575165,-0.06999605894088745,-0.05542386695742607,0.15143904089927673,0.04120972007513046},{-0.15403543412685394,-0.13156016170978546,0.12936396896839142,-0.06224130466580391,-0.24786683917045593,0.03610203042626381,-0.052881982177495956,-0.08983126282691956},{0.039824824780225754,0.010375378653407097,-0.009973488748073578,-0.0013099529314786196,0.017583737149834633,-0.002822107868269086,-0.01733945496380329,0.011421472765505314},{0.01764940656721592,0.006923943292349577,-0.005841199308633804,0.0007410965044982731,0.015112853609025478,-0.0012114235432818532,-0.028959089890122414,0.003332863561809063},{0.02553096041083336,0.004245053511112928,0.0032338371966034174,-0.008517738431692123,0.0016647366574034095,-0.0070497444830834866,-0.015007260255515575,0.005985351279377937},{0.06153745949268341,0.04161997511982918,-0.009554489515721798,-0.03360672667622566,0.09169033914804459,-0.05178740620613098,-0.19129996001720428,0.01650727540254593},{0.0020998569671064615,-0.0014212083769962192,-0.0004582593683153391,-0.0010438722092658281,0.0008388274582102895,-0.0004657184472307563,-0.0014007571153342724,-0.0008765617967583239},{-0.0007325399783439934,-0.000792655220720917,0.00139084761030972,-0.0008277603192254901,-0.00014269223902374506,-0.0012685648398473859,0.004014014266431332,0.0004978854558430612},{0.0007946356781758368,-0.0016804846236482263,0.0005589151405729353,0.00043919170275330544,-0.00011132901272503659,0.00015363993588835,-0.0013096380280330777,0.000677906908094883},{-0.32064369320869446,-0.5471242070198059,1.174649953842163,0.9388819336891174,0.9978199601173401,0.6173783540725708,0.13606072962284088,1.1159673929214478},{-0.4538784623146057,1.0919605493545532,-0.36037009954452515,0.13288411498069763,-0.4451773166656494,-0.040525536984205246,-0.8148915767669678,-0.4243113398551941},{0.2216634750366211,0.6595211029052734,-0.9920666813850403,-1.0138427019119263,-0.773536741733551,-0.23300863802433014,-0.03673986345529556,-0.19037972390651703},{-0.37573227286338806,-0.1725342720746994,0.08196809887886047,-0.08182568848133087,0.07994290441274643,0.9811740517616272,0.27947860956192017,-0.28476014733314514},{-0.1164262592792511,0.33941641449928284,0.07719478011131287,0.18156583607196808,0.019152911379933357,0.02512250281870365,-0.3027457594871521,0.5542560815811157},{-0.734867513179779,0.0381997786462307,-0.32080426812171936,0.01581736095249653,-0.2723318636417389,-0.12995357811450958,0.0246152151376009,0.2707624137401581}};
static const float actor_encoder_neighbor_encoder_embedding_mlp_2_weight[8][8] = {{0.1659771054983139,0.03188471123576164,0.08523701131343842,0.0014261596370488405,0.010115507058799267,0.19751575589179993,-0.245698019862175,-0.5079605579376221},{-0.1391119360923767,0.5947736501693726,-0.07628331333398819,0.04016648232936859,-0.4667597711086273,-0.4087735116481781,-0.17562530934810638,-0.06647013872861862},{-0.13861122727394104,-1.8055427074432373,0.010153617709875107,-0.4048427641391754,-0.42310115694999695,0.043368447571992874,0.38152748346328735,-0.14830341935157776},{-0.299311101436615,-1.0120819807052612,-0.2470530867576599,-0.08228080719709396,-0.5734192132949829,0.06869916617870331,0.06751423329114914,0.5606775879859924},{0.0034746327437460423,-0.8989652395248413,0.01983744278550148,-0.14037464559078217,0.15000537037849426,0.17404262721538544,0.3898683488368988,-0.1617388278245926},{-0.5193514227867126,-0.41924676299095154,-0.16720201075077057,-0.13580581545829773,-0.125143900513649,-0.05900649353861809,0.0885891243815422,0.15734609961509705},{0.07199278473854065,-0.08952780812978745,0.1981547325849533,-0.08621984720230103,-0.030316052958369255,0.37210509181022644,-0.2441188395023346,-0.35934707522392273},{-0.5013504028320312,-0.657718300819397,-0.2568488121032715,-0.2667132019996643,0.17028634250164032,-0.2733575999736786,-0.3799037039279938,0.41256263852119446}};
static const float actor_encoder_neighbor_encoder_neighbor_value_mlp_0_weight[8][8] = {{0.12401223182678223,0.1509941965341568,-0.5899870991706848,0.17562836408615112,-0.32544058561325073,-0.025659646838903427,0.19027431309223175,-0.30438947677612305},{-0.6341692209243774,-0.06003475561738014,-0.7774596810340881,0.2060437649488449,-0.07560103386640549,0.5746633410453796,0.0792599618434906,0.5824764966964722},{-0.31050369143486023,-0.0696302205324173,0.18527287244796753,0.06399118155241013,-0.06660345196723938,-0.16097888350486755,-0.16258829832077026,-0.3485008478164673},{0.5710776448249817,-0.21250224113464355,0.4255678653717041,-0.4404487609863281,-0.12718215584754944,0.20547261834144592,-0.21511274576187134,-0.07954887300729752},{-0.30970481038093567,-0.49667543172836304,-0.5861030220985413,0.19603174924850464,-0.3804248869419098,-0.18622338771820068,0.29399383068084717,-0.23947091400623322},{-0.2862277626991272,0.15567122399806976,-0.3205108642578125,-0.351180762052536,0.119365394115448,0.3980555832386017,0.02507837675511837,-0.16099347174167633},{0.21594113111495972,0.04193270206451416,0.038760192692279816,-0.14903247356414795,0.30653104186058044,-0.3229374587535858,0.5208175182342529,0.3163239061832428},{-0.5039395689964294,-0.31596633791923523,0.42461907863616943,0.5842815041542053,-0.45854490995407104,0.16964088380336761,-0.2095526158809662,-0.3058404326438904}};
static const float actor_encoder_neighbor_encoder_neighbor_value_mlp_2_weight[8][8] = {{-0.4280882775783539,-0.15798351168632507,0.45626071095466614,-0.04336944594979286,0.0780927911400795,0.39132511615753174,-0.019738495349884033,0.4242914915084839},{0.45497485995292664,-0.13042497634887695,0.026157911866903305,0.06210772320628166,-0.2837154269218445,-0.3924635350704193,-0.30746233463287354,0.3227147161960602},{-0.39814531803131104,-0.17581988871097565,0.27770277857780457,0.43931129574775696,0.33808058500289917,0.4668775796890259,0.07478400319814682,0.17062629759311676},{0.13994146883487701,-0.5436962842941284,-0.3088785707950592,-0.16129523515701294,0.01927582547068596,-0.44495025277137756,-0.12603913247585297,-0.10787839442491531},{0.5148190259933472,-0.3973432183265686,-0.35607561469078064,-0.1415952891111374,-0.3715437650680542,-0.24023112654685974,-0.19722428917884827,-0.37462475895881653},{-0.20674721896648407,-0.44445446133613586,0.3872777223587036,0.5091437697410583,0.33136701583862305,-0.34205347299575806,0.29273703694343567,-0.30872195959091187},{0.20956602692604065,-0.41766682267189026,0.5790106058120728,0.23849640786647797,-0.12795715034008026,-0.4054833650588989,-0.10300861299037933,-0.10720258951187134},{0.029137561097741127,-0.29302895069122314,0.2572215795516968,0.07651635259389877,0.5139411687850952,0.4216983914375305,-0.3521871268749237,-0.5235750079154968}};
static const float actor_encoder_neighbor_encoder_attention_mlp_0_weight[16][8] = {{-0.28711628913879395,0.020588545128703117,-0.08079410344362259,0.13749611377716064,-0.06625766307115555,-0.20194171369075775,-0.10590433329343796,0.2642386853694916},{-0.06335409730672836,0.41823476552963257,0.030377784743905067,0.3353070318698883,0.08533753454685211,0.04040055349469185,-0.18383973836898804,0.1771109253168106},{0.30158641934394836,0.01924963854253292,0.2682448625564575,-0.3186126947402954,0.5613663792610168,0.12806333601474762,0.32961443066596985,-0.42228665947914124},{0.3151146173477173,0.4155573546886444,-0.6327265501022339,0.15914081037044525,0.3912995755672455,-0.22172529995441437,-0.0669817253947258,-0.2624487578868866},{-0.6969132423400879,0.2897431552410126,-0.31315964460372925,0.5095782279968262,-0.13381703197956085,-0.5559283494949341,-0.5530444383621216,0.27497386932373047},{0.3896823823451996,-0.3157854378223419,0.6606502532958984,-0.6870073676109314,0.30833467841148376,-0.08296678215265274,0.2655719220638275,-0.24408036470413208},{0.5287232398986816,-0.3392529785633087,0.69498211145401,-0.7855403423309326,0.35170111060142517,0.21569661796092987,-0.18861024081707,0.5208280682563782},{0.2818841338157654,-0.35124239325523376,0.07939006388187408,-0.04923755303025246,0.07878779619932175,0.2649727165699005,-0.18572354316711426,-0.04106619581580162},{-0.05667274072766304,-0.09050346165895462,-0.049581144005060196,-0.095126673579216,-0.1676618754863739,0.13155709207057953,0.2460847645998001,-0.1307227462530136},{0.15651869773864746,-0.16884882748126984,-0.09647273272275925,0.32926735281944275,-0.0032357911113649607,0.1628163605928421,-0.027500353753566742,-0.0969194695353508},{-0.29051673412323,0.13065245747566223,0.3255518078804016,-0.07957704365253448,0.21500062942504883,-0.0025157053023576736,0.04894491657614708,0.3485918641090393},{-0.13513466715812683,0.20924751460552216,-0.07693079859018326,-0.4112234115600586,0.0834098756313324,-0.24125434458255768,-0.19442445039749146,0.17336905002593994},{0.09196627885103226,0.06964236497879028,0.07675611227750778,0.12035371363162994,0.3143809735774994,-0.09655258804559708,-0.04277990385890007,0.5113774538040161},{-0.013439619913697243,-0.12141221761703491,-0.18835566937923431,0.0406823456287384,-0.08145947009325027,0.1151462197303772,-0.07604117691516876,-0.10448092967271805},{0.13230516016483307,0.03266104310750961,-0.1898261308670044,-0.10969294607639313,0.08203767240047455,-0.023328596726059914,0.030625540763139725,0.10355550795793533},{-0.1626012921333313,-0.07633058726787567,0.2069728672504425,0.2512139678001404,0.22003041207790375,0.12833021581172943,0.009995626285672188,0.3983510136604309}};
static const float actor_encoder_neighbor_encoder_attention_mlp_2_weight[8][8] = {{0.3391757607460022,-0.7686373591423035,0.4575374126434326,-0.0402730293571949,-0.44281819462776184,-0.14613588154315948,0.4514180123806,0.2786576449871063},{-0.09287242591381073,0.2881169617176056,-0.5273460149765015,-0.2846411168575287,-0.4577505886554718,0.12435748428106308,-0.1501946747303009,-0.08909613639116287},{-0.49039357900619507,-0.7971445322036743,-0.5351983308792114,0.21459446847438812,-0.37961694598197937,0.004490172490477562,0.3520478308200836,0.04824983328580856},{0.4429909586906433,0.6888917088508606,0.6288455128669739,-0.5732109546661377,0.2776739001274109,0.1425214409828186,-0.19009879231452942,0.3395580053329468},{-0.5257812142372131,-0.45751357078552246,-0.11378501355648041,-0.006534722167998552,-0.14015063643455505,0.5212391018867493,0.11931472271680832,0.1159188449382782},{0.22350798547267914,-0.2881608009338379,-0.3422205448150635,0.019869092851877213,-0.3642215132713318,-0.1022762656211853,0.3545272946357727,0.17433613538742065},{0.17295366525650024,0.1639583706855774,0.05601751431822777,-0.5896756649017334,0.18987801671028137,0.026501532644033432,0.010784558951854706,-0.5014630556106567},{-0.017522800713777542,0.16039533913135529,-0.5290984511375427,0.33689582347869873,-0.1585305631160736,-0.24491481482982635,-0.2343239188194275,0.427897185087204}};
static const float actor_encoder_neighbor_encoder_attention_mlp_4_weight[8][1] = {{-0.6724092960357666},{-0.45308828353881836},{0.44755297899246216},{0.32948264479637146},{0.6597238779067993},{-0.13691920042037964},{-0.6543713808059692},{0.19848793745040894}};
static const float actor_encoder_self_encoder_0_weight[18][16] = {{-0.21266423165798187,-0.13721276819705963,-0.4381714463233948,0.22623716294765472,0.1614098995923996,0.46949195861816406,0.27387580275535583,-0.1343776434659958,0.3069626986980438,0.017177198082208633,-0.1988944262266159,0.22086066007614136,0.0849769115447998,-0.1521161049604416,0.024714861065149307,-0.017210382968187332},{-0.3151479661464691,-0.153977170586586,-0.2491191029548645,-0.18307745456695557,-0.014583609066903591,-0.3406592011451721,-0.20890285074710846,0.4276711344718933,0.23331788182258606,0.15238319337368011,0.19638559222221375,0.11037164181470871,-0.16391827166080475,-0.33818522095680237,-0.034126706421375275,0.06287482380867004},{0.39942115545272827,0.01528014987707138,-0.09736388921737671,0.3486280143260956,-0.5418707132339478,0.17870482802391052,0.1761203557252884,-0.050932712852954865,-0.28746888041496277,-0.3397587835788727,-0.03644292429089546,0.03337959945201874,0.0785888209939003,-0.19923940300941467,-0.023915894329547882,-0.45156535506248474},{0.21725700795650482,-0.05552953481674194,-0.16788505017757416,0.11464285850524902,0.05598842725157738,0.2870880961418152,0.2286546528339386,0.2011812925338745,0.13639867305755615,-0.4119841754436493,-0.38547655940055847,-0.1681917905807495,0.04541739076375961,0.35507261753082275,-0.2576824426651001,0.144194096326828},{0.004890479613095522,-0.21599005162715912,-0.04500877112150192,0.19788576662540436,-0.03139375522732735,0.10485799610614777,-0.27609360218048096,0.12965962290763855,-0.10859476774930954,-0.10547561943531036,0.2526215612888336,0.15273843705654144,-0.27954477071762085,-0.10024503618478775,-0.1483309119939804,-0.05383741110563278},{0.18627026677131653,0.18303702771663666,-0.15277516841888428,-0.25742340087890625,-0.2596827447414398,0.019579559564590454,0.08517694473266602,-0.11829407513141632,-0.13997602462768555,0.12036183476448059,0.20958785712718964,-0.25262215733528137,0.02707480639219284,-0.31520095467567444,0.03803347796201706,-0.28588828444480896},{0.2516883909702301,0.20230364799499512,-0.12079215049743652,-0.32281699776649475,-0.02505355142056942,-0.06696245819330215,-0.007492128759622574,0.3151346743106842,-0.011104837991297245,-0.15841564536094666,-0.41635093092918396,0.15690763294696808,-0.37315690517425537,-0.11978422850370407,-0.1647154539823532,0.18849018216133118},{-0.10904945433139801,-0.3409859538078308,0.1701202392578125,0.13123086094856262,-0.08780371397733688,0.2852078080177307,-0.06673920899629593,-0.16508284211158752,-0.5450388789176941,-0.17629875242710114,0.14204402267932892,-0.6830820441246033,-0.07727181911468506,-0.130926713347435,-0.09120070189237595,-0.3047007918357849},{-0.6396204829216003,-0.3245551288127899,-0.14616303145885468,0.3409789800643921,0.12295687943696976,0.25367656350135803,0.6759747862815857,-0.27410629391670227,-0.4076554775238037,-0.6701681017875671,0.29103323817253113,-0.05290447548031807,-0.013119854032993317,-0.3818204700946808,0.1727617084980011,-0.1407558023929596},{0.0980304479598999,0.22459140419960022,-0.31517815589904785,0.34250718355178833,-0.1255781352519989,-0.18398311734199524,0.12402337789535522,0.14145618677139282,0.7595753073692322,-0.24941802024841309,-0.13440586626529694,0.15192750096321106,-0.08021676540374756,0.404998242855072,-0.21184618771076202,-0.03507192060351372},{0.1908930242061615,0.05596139281988144,-0.21784526109695435,-0.22191955149173737,-0.008099659346044064,-0.057208649814128876,-0.41698604822158813,-0.12778186798095703,0.40407317876815796,-0.1766716092824936,-0.46089643239974976,0.407089501619339,-0.3920426666736603,-0.21369828283786774,0.29493099451065063,-0.2898623049259186},{-0.5633028149604797,-0.3370319902896881,-0.3727991282939911,-0.2284422665834427,-0.1268470138311386,0.21013417840003967,-0.43963757157325745,-0.5156039595603943,-0.007044363766908646,0.09603586047887802,0.6217311024665833,-0.3580309748649597,-0.2907122075557709,0.17148783802986145,-0.5932415127754211,-0.20366758108139038},{0.1647072434425354,-0.09555187821388245,0.11552789062261581,-0.5940949320793152,0.2510325014591217,0.14934687316417694,-0.023243824020028114,0.0985993891954422,0.48715049028396606,0.49494391679763794,-0.6622077226638794,0.433409184217453,0.3341231644153595,-0.05581944063305855,-0.014973754063248634,-0.13659921288490295},{0.23021560907363892,-0.38518768548965454,-0.41589799523353577,0.13663925230503082,0.25844964385032654,0.34292325377464294,0.41156017780303955,-0.045748453587293625,-0.2565879225730896,-0.020873621106147766,-0.2721835672855377,-0.22471003234386444,-0.16087602078914642,-0.14212076365947723,0.7348500490188599,-0.19400165975093842},{-0.5469648241996765,-0.3660775423049927,0.4619395136833191,0.11125555634498596,-0.07842985540628433,-0.297466903924942,-0.2963903248310089,0.4256959855556488,0.13413730263710022,-0.25070425868034363,0.0843513160943985,0.2964651882648468,-0.5064882040023804,0.2677493691444397,0.4285725951194763,-0.21703125536441803},{0.22027155756950378,-0.05169713497161865,0.01996568590402603,0.2985614538192749,0.06490214914083481,0.10196491330862045,0.33815816044807434,0.4297660291194916,0.002395579358562827,-0.24098573625087738,-0.3669114112854004,-0.067574143409729,-0.04630846530199051,0.08567679673433304,0.13460798561573029,-0.02334679290652275},{-0.31843701004981995,0.308593213558197,-0.27138251066207886,0.34146562218666077,-0.11449061334133148,0.08143680542707443,-0.08310107886791229,-0.4254268407821655,-0.2816660702228546,-0.416646808385849,-0.020713351666927338,-0.06762479245662689,-0.3064345717430115,0.10076816380023956,-0.056347694247961044,-0.13714490830898285},{0.31446149945259094,-0.11942204087972641,0.1478770524263382,-0.07848907262086868,-0.3471517860889435,-0.30619049072265625,0.2813115119934082,0.08815443515777588,0.15069645643234253,0.07742653042078018,0.3758058249950409,0.04121751710772514,-0.13803055882453918,0.20672889053821564,-0.12792660295963287,0.22496789693832397}};
static const float actor_encoder_self_encoder_2_weight[16][16] = {{0.03640298917889595,0.006144962273538113,0.12165021151304245,0.056339770555496216,-0.3088587522506714,-0.11093346774578094,0.1806955486536026,0.33594992756843567,0.2740367650985718,0.17551718652248383,0.14642709493637085,-0.3124905228614807,-0.16465167701244354,-0.17832207679748535,0.3661544919013977,0.046817850321531296},{-0.009513246826827526,-0.22111447155475616,0.11330881714820862,-0.4615274667739868,-0.25622040033340454,0.33779606223106384,0.2903519868850708,-0.13358214497566223,0.2520674467086792,-0.1883917599916458,-0.34581315517425537,-0.36484912037849426,0.04859673231840134,0.36743849515914917,-0.1654270440340042,0.10824950039386749},{-0.27575597167015076,-0.47082749009132385,0.02785494551062584,-0.3421934247016907,0.2707260847091675,-0.23750321567058563,0.17956380546092987,-0.015236522071063519,0.343526691198349,-0.40720269083976746,0.0479869544506073,-0.08194544911384583,0.1454133689403534,0.1675673872232437,-0.2363237589597702,-0.4233925938606262},{-0.16554592549800873,0.0510685108602047,0.34788140654563904,-0.02565361186861992,-0.09990278631448746,0.18311481177806854,0.29255661368370056,-0.3516350984573364,0.278593510389328,0.2900437116622925,0.18976609408855438,-0.26471251249313354,0.28899016976356506,-0.10652553290128708,0.3575408160686493,0.22512221336364746},{-0.3110792338848114,-0.09898822009563446,-0.33997347950935364,-0.005610721651464701,0.07509516179561615,0.056063197553157806,-0.02388782985508442,0.24923917651176453,-0.16483284533023834,-0.05305200815200806,0.012253344990313053,0.25011706352233887,0.18363358080387115,-0.21935249865055084,-0.01833230070769787,0.11850254982709885},{-0.298209547996521,-0.3506079316139221,0.1067894920706749,-0.09782307595014572,0.07778472453355789,0.11415661126375198,-0.3325786888599396,-0.09123938530683517,-0.2832808494567871,-0.15671616792678833,-0.41913560032844543,-0.2974681258201599,-0.4008832573890686,-0.19698753952980042,-0.2979925870895386,0.2612892687320709},{0.09302104264497757,-0.14330077171325684,0.4116712212562561,0.33161816000938416,-0.5229249000549316,0.16916735470294952,-0.38508692383766174,-0.10311879962682724,0.5130224823951721,-0.47278666496276855,-0.00887744128704071,-0.5591714978218079,0.3713887631893158,0.2849491834640503,-0.22111603617668152,0.32904335856437683},{0.06008891016244888,0.23718149960041046,0.10722093284130096,0.07192136347293854,-0.3425290584564209,-0.10439825057983398,-0.1724662184715271,-0.3967811167240143,0.029647449031472206,0.04341088607907295,0.1446462869644165,-0.28764909505844116,-0.3195742964744568,-0.08077659457921982,-0.00414435938000679,0.041904252022504807},{-0.09347078949213028,-0.15507249534130096,0.3682800531387329,-0.1958933174610138,-0.0760793685913086,0.33278200030326843,0.11957214772701263,0.1389487385749817,0.20984789729118347,0.2183505743741989,0.22614224255084991,-0.27776047587394714,-0.056054458022117615,-0.03663467615842819,-0.09934625029563904,0.20843340456485748},{0.27985966205596924,-0.3627576231956482,-0.24548499286174774,-0.24016542732715607,0.23849187791347504,-0.1781223863363266,0.08094009011983871,0.43802744150161743,-0.2697497308254242,-0.27729251980781555,0.3265005052089691,-0.0811111256480217,-0.09525817632675171,-0.5543047785758972,0.34778425097465515,-0.2729005813598633},{0.2277660369873047,-0.2428729385137558,0.4067520499229431,-0.09253184497356415,0.40296632051467896,0.19723600149154663,0.26544296741485596,-0.28877246379852295,0.04323387145996094,0.24714484810829163,0.17104709148406982,0.1990908980369568,0.253639817237854,-0.22652165591716766,0.4082426428794861,0.0986117571592331},{-0.02378450147807598,0.24993601441383362,0.0017362043727189302,-0.1163109689950943,-0.007147010415792465,0.45617520809173584,0.29465749859809875,0.20510415732860565,0.4097355604171753,0.4053606390953064,0.4772377610206604,-0.12938550114631653,-0.20512434840202332,0.13550178706645966,-0.13080187141895294,0.2094070464372635},{0.20040330290794373,-0.17480678856372833,0.15725912153720856,-0.21623367071151733,0.002931704046204686,-0.4778577983379364,0.04136213660240173,0.21437819302082062,0.26442089676856995,0.24039466679096222,-0.03981879726052284,-0.5114450454711914,-0.14273430407047272,-0.3174632787704468,0.08717592805624008,-0.14699362218379974},{0.2954385280609131,0.3098074495792389,-0.31208497285842896,0.332801878452301,0.40025654435157776,0.29711708426475525,-0.4247051179409027,0.06428351253271103,0.14392414689064026,0.008552545681595802,-0.38450750708580017,-0.050519909709692,0.06832309812307358,-0.3846140205860138,-0.4587733745574951,-0.17616315186023712},{-0.19272328913211823,0.41605043411254883,-0.4372129440307617,-0.2079262137413025,0.10280013829469681,-0.28229987621307373,-0.08153363317251205,0.35028934478759766,0.1321796327829361,-0.43054017424583435,0.1699608713388443,-0.10320686548948288,-0.07306420058012009,0.1872173249721527,0.27270570397377014,0.01580742374062538},{0.3328609764575958,0.20028503239154816,0.10161981731653214,-0.017414631322026253,0.05580746382474899,0.07568688690662384,-0.08256106078624725,0.36352866888046265,-0.07930278033018112,-0.009571848437190056,-0.4292641282081604,0.16444547474384308,0.0013836201978847384,-0.449606329202652,0.22580324113368988,0.10955853015184402}};
static const float actor_encoder_feed_forward_0_weight[24][32] = {{-0.09429408609867096,0.031733788549900055,-0.1507353037595749,0.04758702591061592,-0.06777691841125488,-0.12188716232776642,-0.08475734293460846,-0.16200020909309387,0.03445512056350708,0.08513741195201874,0.1849285066127777,0.17398925125598907,-0.2107992321252823,0.03653069958090782,-0.09438066184520721,-0.1632557511329651,0.011811618693172932,-0.28083083033561707,-0.30748236179351807,0.02452564798295498,-0.17089930176734924,-0.08475890755653381,-0.04784500226378441,0.03198350965976715,0.2692958414554596,0.3571198880672455,-0.1647023856639862,0.013531909324228764,-0.08288219571113586,-0.1844543218612671,-0.07384906709194183,0.09557082504034042},{0.2253437638282776,-0.15193141996860504,0.11924763768911362,-0.27604180574417114,-0.03636451065540314,-0.21468715369701385,0.40175771713256836,0.18471352756023407,0.03624536469578743,0.21445751190185547,-0.060329508036375046,0.19173985719680786,0.11807912588119507,-0.11810491234064102,-0.21490977704524994,-0.17901374399662018,-0.24967971444129944,-0.046254534274339676,0.13600486516952515,0.28633931279182434,0.3335721790790558,0.39164596796035767,-0.0890771821141243,-0.007402581628412008,-0.0024509236682206392,0.30028235912323,0.25200119614601135,0.17038454115390778,-0.23855060338974,0.17240574955940247,-0.1978798806667328,-0.3429812490940094},{0.27992480993270874,0.09249211102724075,0.03965184837579727,-0.3719705641269684,-0.17186038196086884,-0.4041860103607178,-0.22763100266456604,-0.21227577328681946,-0.07157233357429504,0.12796349823474884,-0.002089081332087517,0.08747293055057526,-0.20729774236679077,0.05655951052904129,-0.11980407685041428,-0.22872817516326904,-0.093532033264637,-0.1664513647556305,0.32366472482681274,-0.19572319090366364,-0.033637214452028275,0.1791352778673172,-0.1703110784292221,0.06731779128313065,-0.10906411707401276,-0.045873843133449554,-0.04997033625841141,0.0006049717776477337,0.08367501199245453,-0.224448099732399,0.3218939006328583,0.034325286746025085},{0.16675204038619995,-0.0763864740729332,-0.07806207984685898,0.1754717230796814,-0.15422149002552032,0.3085055649280548,-0.152843177318573,0.235818013548851,-0.09984663873910904,0.30640363693237305,0.25553223490715027,-0.40563324093818665,0.05652251094579697,0.013049181550741196,-0.29943394660949707,-0.06548512727022171,0.11958245933055878,0.14309825003147125,0.227563738822937,0.15021924674510956,-0.15857277810573578,-0.14736422896385193,-0.055332571268081665,0.20303437113761902,0.25590968132019043,0.12712909281253815,-0.1834511011838913,0.1744050234556198,-0.060594260692596436,-0.21416813135147095,0.08589682728052139,0.2613891363143921},{0.13551557064056396,0.1947128027677536,-0.006605724338442087,0.1165568009018898,-0.04831036925315857,-0.07462915033102036,-0.14772559702396393,-0.1567387580871582,0.10647673904895782,-0.15224520862102509,0.19088049232959747,0.22335578501224518,0.2725893259048462,-0.259358286857605,-0.18066094815731049,0.28477802872657776,-0.26497936248779297,0.17637653648853302,-0.23485851287841797,0.020155129954218864,0.18987728655338287,-0.35641172528266907,0.28303107619285583,0.24481703341007233,-0.11019255220890045,0.007378706242889166,-0.29251641035079956,0.06291118264198303,0.07426974177360535,-0.22824569046497345,-0.10206060111522675,0.29033705592155457},{0.004683594685047865,0.38082072138786316,-0.037928998470306396,-0.1493714600801468,0.088206447660923,0.1392570286989212,-0.2309311032295227,-0.22688955068588257,-0.24844826757907867,0.186489075422287,-0.3802696764469147,-0.18477076292037964,-0.24908660352230072,-0.02000701054930687,0.13454602658748627,-0.3462376594543457,0.03864824399352074,-0.20727509260177612,0.06748796254396439,0.17321088910102844,0.289559006690979,0.19457682967185974,0.17603187263011932,0.2696930766105652,-0.06758621335029602,0.05387473851442337,0.19458195567131042,0.18338458240032196,0.05078118294477463,-0.3812748193740845,-0.026085931807756424,0.26440224051475525},{-0.022525843232870102,-0.17227689921855927,0.14168286323547363,0.040873557329177856,-0.19367145001888275,-0.17440110445022583,-0.12014137953519821,-0.0679793432354927,0.03964029625058174,-0.13101798295974731,-0.3668166399002075,0.04651692137122154,0.06786864250898361,-0.20860184729099274,-0.07873760908842087,0.17455686628818512,0.0536663718521595,-0.2672765552997589,0.2037886530160904,0.0648532286286354,0.09267517179250717,-0.514400064945221,0.047082819044589996,-0.12571954727172852,-0.012538835406303406,0.03910243511199951,-0.1808810532093048,-0.14968420565128326,-0.22490322589874268,0.3676900565624237,-0.32808423042297363,0.25875091552734375},{-0.10228286683559418,0.0959203839302063,-0.05060573294758797,-0.1155494675040245,0.08877094835042953,-0.13760963082313538,0.04837759956717491,-0.08459826558828354,0.007624858990311623,0.18611909449100494,-0.23036637902259827,0.28682979941368103,0.30670443177223206,0.05138487368822098,-0.06597775965929031,0.15347011387348175,0.15595416724681854,0.2541535496711731,-0.2232057899236679,0.23480921983718872,0.13318519294261932,-0.23727141320705414,0.0132653983309865,-0.18041382730007172,-0.2913084030151367,-0.28721508383750916,0.05560704320669174,0.332773894071579,0.1199648305773735,-0.32617253065109253,-0.15968762338161469,-0.07660271227359772},{0.1178269162774086,-0.07247985899448395,-0.17116029560565948,-0.2724847197532654,-0.03734115883708,-0.06712961196899414,-0.15192671120166779,-0.2926771342754364,-0.29191267490386963,0.026341062039136887,0.2612204849720001,0.17832571268081665,-0.10785892605781555,0.12587055563926697,0.04259718209505081,-0.14399586617946625,-0.10296832770109177,0.21005840599536896,-0.24055399000644684,-0.24979621171951294,-0.02803741581737995,-0.16459369659423828,0.14917472004890442,-0.05970429256558418,-0.31395041942596436,-0.13369737565517426,0.08711861073970795,-0.2764773964881897,-0.21927189826965332,-0.17329590022563934,-0.30508288741111755,0.006192126777023077},{-0.2573184669017792,-0.09942662715911865,-0.2067490667104721,-0.32401591539382935,0.00836720410734415,-0.21056179702281952,0.14162984490394592,0.24335519969463348,0.23662851750850677,0.09072712808847427,-0.2326255887746811,-0.13184912502765656,-0.01622898131608963,-0.042854245752096176,-0.0967140719294548,-0.057077258825302124,-0.10695327818393707,-0.31001996994018555,0.03452828526496887,-0.3140910267829895,0.12303544580936432,0.18431271612644196,0.06729356944561005,-0.21434305608272552,-0.39016079902648926,0.0838010162115097,-0.3094594478607178,-0.092903271317482,0.25664183497428894,0.2749967873096466,-0.11723490804433823,0.17376351356506348},{-0.019593026489019394,-0.24377696216106415,-0.30488425493240356,0.07179859280586243,0.1300591677427292,-0.21083831787109375,-0.3030567169189453,0.15857596695423126,-0.11901495605707169,-0.08755111694335938,0.06096494570374489,-0.07930926233530045,-0.2633993923664093,-0.19559495151042938,0.1359253078699112,-0.2835197150707245,0.09952672570943832,0.07336040586233139,0.318507581949234,0.09409068524837494,-0.2742285430431366,0.1718979924917221,0.10992921143770218,0.06544400006532669,0.2154085487127304,0.32767727971076965,0.08840722590684891,-0.11016054451465607,0.08217724412679672,0.17748254537582397,-0.30387991666793823,0.1457568109035492},{-0.2514007091522217,0.2245633453130722,0.10569874197244644,-0.03183749318122864,-0.23000872135162354,0.160042405128479,-0.22176051139831543,0.25167396664619446,0.2602096498012543,-0.16145987808704376,-0.22693991661071777,-0.15905413031578064,-0.2415657937526703,-0.20189476013183594,-0.03653731942176819,-0.014887585304677486,0.08634119480848312,0.056885454803705215,-0.029815634712576866,0.26097244024276733,0.3416205048561096,-0.2426522672176361,0.24314892292022705,-0.11834881454706192,0.34557461738586426,-0.12040357291698456,0.0963299348950386,0.07818066328763962,0.10936585813760757,0.23185989260673523,-0.14960770308971405,0.18433216214179993},{-0.21950078010559082,0.011916033923625946,-0.15337499976158142,0.14298154413700104,-0.09059342741966248,0.10379292815923691,-0.07520289719104767,-0.22290852665901184,-0.11008953303098679,0.15798872709274292,0.2531784474849701,-0.018276626244187355,0.03623228147625923,-0.11110280454158783,-0.23542331159114838,0.07869989424943924,0.3460663855075836,-0.3115939795970917,-0.08643245697021484,0.017627714201807976,-0.09966549277305603,0.1866052895784378,0.10650414973497391,0.2146957814693451,-0.1408553570508957,0.10383269935846329,-0.3408200144767761,-0.10079734027385712,-0.38185131549835205,0.08657575398683548,0.12755805253982544,-0.1860162317752838},{-0.2184462994337082,-0.210393488407135,0.065585657954216,0.3553101122379303,0.09326052665710449,-0.16825221478939056,-0.023028334602713585,0.533841073513031,0.10796304047107697,-0.05450407415628433,-0.09827857464551926,-0.11901091039180756,0.14296047389507294,0.35186541080474854,-0.06342083215713501,-0.25960543751716614,0.16071423888206482,0.40626582503318787,-0.1445659101009369,-0.09691799432039261,-0.3447152376174927,0.4538200795650482,-0.23377947509288788,0.0398511104285717,-0.2728985548019409,0.23359191417694092,-0.11083922535181046,0.12935836613178253,0.13280121982097626,-0.1628536731004715,-0.10032107681035995,0.01521417498588562},{-0.30558499693870544,0.3310583531856537,0.2700852155685425,-0.20654678344726562,0.08564962446689606,-0.19505935907363892,0.05697784945368767,-0.1610567569732666,0.06468521058559418,0.2798992693424225,0.3144366145133972,-0.09466428309679031,0.250840425491333,-0.24642062187194824,0.2831471860408783,-0.061781320720911026,-0.11211088299751282,-0.10069174319505692,-0.1804446130990982,-0.11603811383247375,-0.12071679532527924,0.18627017736434937,0.01389128528535366,-0.101283498108387,-0.17534029483795166,-0.07429027557373047,0.20747628808021545,-0.2589781582355499,0.10863737016916275,-0.22521382570266724,0.2566225826740265,-0.2257917821407318},{-0.1225891187787056,-0.18034851551055908,-0.06780175864696503,-0.15841907262802124,0.29436999559402466,0.16033996641635895,0.20962192118167877,0.04912964627146721,-0.11015814542770386,-0.13172493875026703,0.16021887958049774,-0.3145756125450134,-0.18270574510097504,0.1600707620382309,0.026675941422581673,0.1834736317396164,0.26979124546051025,-0.08255767822265625,-0.13741131126880646,0.014726548455655575,0.10556087642908096,-0.009334811940789223,0.09852450340986252,-0.19081348180770874,-0.14925740659236908,0.14657939970493317,0.09601476043462753,-0.2085908055305481,-0.38358014822006226,-0.23868267238140106,0.14222484827041626,-0.22969581186771393},{0.07050152868032455,-0.06301003694534302,-0.21643725037574768,-0.17762437462806702,0.18255645036697388,-0.0878664031624794,-0.17190967500209808,-0.19203628599643707,0.021327270194888115,0.10778051614761353,0.1918957531452179,0.159865140914917,-0.12511786818504333,0.33057233691215515,-0.21741661429405212,-0.07208947837352753,0.2112642377614975,-0.2361219823360443,-0.17048712074756622,-0.23988115787506104,-0.1081024780869484,-0.19661223888397217,-0.12098293006420135,0.10330351442098618,0.31550419330596924,0.012698601000010967,-0.2649458050727844,0.06669874489307404,0.18667176365852356,0.10971525311470032,0.17360426485538483,-0.10176323354244232},{-0.18981321156024933,-0.006520266178995371,0.0933721512556076,-0.21090902388095856,0.025883525609970093,0.2654954791069031,0.1091575026512146,-0.10966990143060684,-0.03673937916755676,-0.11828389018774033,0.07578171789646149,-0.23305760324001312,0.25187861919403076,-0.12521661818027496,0.09265442192554474,-0.17930208146572113,0.1990555226802826,0.2554907202720642,-0.23608116805553436,-0.059371333569288254,0.0224573016166687,0.19916114211082458,0.18914218246936798,0.21443435549736023,0.10714557766914368,0.011644544079899788,-0.20761653780937195,0.0340019054710865,-0.07029057294130325,-0.10614170879125595,-0.25541892647743225,-0.19702763855457306},{-0.1213710680603981,-0.10743177682161331,0.008952129632234573,0.19504763185977936,0.02079162932932377,0.009192753583192825,0.29448869824409485,-0.30885010957717896,0.05030283331871033,-0.14252795279026031,0.2441682517528534,-0.15606123208999634,0.2137947380542755,0.14686261117458344,-0.13795503973960876,-0.09914947301149368,0.1290065497159958,0.19273096323013306,-0.024478798732161522,0.22816751897335052,0.10593313723802567,0.04571359604597092,-0.0801440179347992,-0.1598445028066635,0.15419334173202515,-0.164407417178154,-0.19285491108894348,0.17364601790905,0.30542677640914917,-0.015827255323529243,-0.1274295449256897,0.16607218980789185},{0.163954496383667,0.08981343358755112,-0.2407960146665573,-0.2184811383485794,-0.11123630404472351,0.19465838372707367,0.34421631693840027,0.13603611290454865,0.053571563214063644,0.15938831865787506,-0.1627531349658966,-0.04280499741435051,0.18032154440879822,-0.12667541205883026,-0.046046555042266846,-0.06826692819595337,-0.332902729511261,-0.21162085235118866,-0.15425404906272888,0.01080242358148098,0.15397752821445465,0.18813864886760712,0.28265613317489624,0.1669967621564865,0.03273991867899895,0.18987633287906647,-0.048847418278455734,-0.06746146082878113,-0.20624224841594696,-0.21846528351306915,0.09984367340803146,0.007912712171673775},{-0.09792003780603409,-0.12396760284900665,0.01640245132148266,0.029540324583649635,-0.20975004136562347,-0.0007785680936649442,0.12956596910953522,-0.1881205141544342,0.29665952920913696,-0.07867436110973358,-0.14713265001773834,-0.02365429326891899,-0.21473035216331482,-0.17240622639656067,-0.28951746225357056,-0.39540305733680725,0.06649897247552872,-0.24844229221343994,-0.17854437232017517,-0.20033684372901917,0.045122984796762466,0.0874851793050766,0.023278459906578064,-0.05857865884900093,-0.11671250313520432,-0.22431130707263947,-0.22958168387413025,0.14355963468551636,-0.12178589403629303,0.10639079660177231,0.10603819787502289,0.18099085986614227},{0.14883974194526672,-0.007104404736310244,0.18045087158679962,-0.27734610438346863,-0.26063433289527893,-0.05633477121591568,0.2965647578239441,-0.09124059975147247,-0.08836793154478073,0.21971571445465088,0.03360733017325401,-0.12351357191801071,-0.24299409985542297,0.028452519327402115,-0.14000393450260162,0.3586297333240509,0.021054651588201523,0.26044026017189026,-0.15706519782543182,0.18211956322193146,-0.04016871377825737,0.15489177405834198,-0.08176591992378235,0.2328324019908905,0.09016291797161102,-0.15648050606250763,-0.2738766372203827,-0.021139873191714287,-0.2008494883775711,-0.16741959750652313,0.0776534229516983,-0.06390640884637833},{-0.21779780089855194,-0.08555449545383453,0.060050513595342636,0.2942565679550171,-0.18611760437488556,-0.23811590671539307,0.31932932138442993,-0.26276448369026184,-0.10260745882987976,0.42988717555999756,0.12553808093070984,-0.19529950618743896,-0.2067616879940033,0.04433973878622055,-0.1429978460073471,-0.06964685767889023,0.16575321555137634,0.06513991951942444,-0.1601560413837433,0.0917430892586708,0.020220952108502388,-0.12543530762195587,0.3031123876571655,-0.09270284324884415,-0.11641783267259598,-0.02897549234330654,-0.05315067991614342,0.015162753872573376,-0.11879247426986694,-0.05706080049276352,0.11552264541387558,-0.4048444628715515},{0.18162690103054047,0.3475668132305145,0.28912603855133057,0.24765841662883759,0.017495758831501007,0.01610671728849411,-0.14178551733493805,-0.04051969200372696,0.06763142347335815,0.050371453166007996,-0.13151167333126068,0.11841239035129547,0.3057941198348999,-0.3122375011444092,0.04588110372424126,-0.14451885223388672,0.08083326369524002,-0.11673372238874435,0.1776338666677475,0.29455140233039856,0.09628405421972275,-0.25108498334884644,-0.007897992618381977,0.08751681447029114,0.04093379154801369,-0.043281082063913345,-0.07696284353733063,0.4229396879673004,-0.17345188558101654,-0.23760834336280823,0.2883341312408447,-0.3548963665962219}};
static const float action_parameterization_distribution_linear_weight[32][4] = {{-0.1398923099040985,-0.03126988559961319,-0.0214767474681139,-0.30783748626708984},{0.3676697611808777,-0.2744523882865906,-0.11487216502428055,0.3655853867530823},{0.23393411934375763,0.2882564663887024,-0.11871876567602158,-0.1919589787721634},{-0.034868787974119186,0.26457250118255615,-0.03548681363463402,0.16925625503063202},{-0.22029566764831543,-0.14665336906909943,0.024312643334269524,0.23472526669502258},{-0.1446811854839325,0.3100375235080719,0.0009149467223323882,0.22984819114208221},{0.032373685389757156,0.05634111911058426,-0.16726236045360565,0.020688917487859726},{-0.14502304792404175,0.040133461356163025,-0.46047353744506836,0.45620283484458923},{-0.02253633365035057,0.257673054933548,0.2850765287876129,0.22276537120342255},{-0.036449234932661057,0.005301980301737785,-0.10843539237976074,0.0911346897482872},{-0.020859388634562492,0.22516559064388275,-0.18440599739551544,-0.34237128496170044},{-0.08080247044563293,-0.002327876165509224,0.3734723627567291,0.001621439354494214},{0.07447091490030289,0.21325474977493286,0.004262271337211132,-0.12865546345710754},{-0.19285833835601807,-0.04644854739308357,-0.14984138309955597,0.012422203086316586},{-0.20720207691192627,0.18395298719406128,0.27323055267333984,0.27372339367866516},{-0.2554223835468292,0.14905911684036255,0.22362594306468964,0.26340144872665405},{-0.19509053230285645,-0.174327552318573,-0.132512167096138,0.031238147988915443},{-0.18859219551086426,-0.016766509041190147,-0.07878244668245316,-0.18475180864334106},{-0.14667128026485443,-0.3489976227283478,0.13730649650096893,-0.3615226447582245},{0.2679932415485382,0.15211133658885956,-0.18983478844165802,0.08661431074142456},{0.3997866213321686,0.25612667202949524,0.2218126505613327,0.2211369276046753},{-0.08438704162836075,-0.33978164196014404,-0.35766229033470154,-0.09668872505426407},{0.2540125548839569,0.12836530804634094,0.19575835764408112,-0.27307069301605225},{0.012428385205566883,0.07132530957460403,-0.034359872341156006,0.18087422847747803},{-0.09912044554948807,-0.3247130215167999,0.13121822476387024,0.28130611777305603},{0.2009703665971756,0.22461029887199402,0.12508781254291534,-0.40086865425109863},{0.16888953745365143,0.26392245292663574,-0.23314210772514343,-0.20693537592887878},{0.23582099378108978,0.1166008859872818,-0.037782832980155945,-0.2812482714653015},{0.05694736912846565,0.0921444222331047,0.17551285028457642,-0.10067977011203766},{0.12636572122573853,0.16175009310245514,-0.01680486463010311,0.3603465259075165},{0.2814280390739441,-0.1381259560585022,-0.47078198194503784,0.07429869472980499},{-0.08721053600311279,-0.23381514847278595,0.284355103969574,0.24542182683944702}};
static const float actor_encoder_neighbor_encoder_embedding_mlp_0_bias[8] = {0.07544849812984467,-0.05752433091402054,-0.030671220272779465,0.07800496369600296,-0.062191907316446304,0.08074919879436493,-0.08569546043872833,0.20120888948440552};
static const float actor_encoder_neighbor_encoder_embedding_mlp_2_bias[8] = {-0.03203173354268074,0.023467769846320152,-0.09762025624513626,-0.11956176161766052,0.04893319308757782,0.030230173841118813,0.0586697980761528,0.24401889741420746};
static const float actor_encoder_neighbor_encoder_neighbor_value_mlp_0_bias[8] = {-0.11556442081928253,0.03742864355444908,-0.07820095866918564,-0.0008906442672014236,-0.0812629982829094,0.047353606671094894,0.09648532420396805,-0.16434113681316376};
static const float actor_encoder_neighbor_encoder_neighbor_value_mlp_2_bias[8] = {-0.03321950137615204,0.05164643004536629,0.057033415883779526,0.054899051785469055,0.002642762614414096,-0.08103179186582565,-0.06385751068592072,0.0006660394719801843};
static const float actor_encoder_neighbor_encoder_attention_mlp_0_bias[8] = {0.008090422488749027,-0.09727834910154343,0.11763034015893936,-0.11986680328845978,0.18841803073883057,-0.012488953769207,-0.4850507974624634,0.2482457011938095};
static const float actor_encoder_neighbor_encoder_attention_mlp_2_bias[8] = {-0.1938176453113556,-0.14938004314899445,0.06596063077449799,0.2598111927509308,-0.04741431400179863,-0.16411642730236053,-0.26189950108528137,0.39306896924972534};
static const float actor_encoder_neighbor_encoder_attention_mlp_4_bias[1] = {-0.00013020345068071038};
static const float actor_encoder_self_encoder_0_bias[16] = {-0.19879543781280518,-0.06600356101989746,0.051986660808324814,-0.05129661411046982,0.08602194488048553,0.009151832200586796,0.056705351918935776,0.043112993240356445,0.21077674627304077,0.07148737460374832,0.056888148188591,0.19372306764125824,-0.17128510773181915,0.14843563735485077,0.055407989770174026,-0.04933154582977295};
static const float actor_encoder_self_encoder_2_bias[16] = {0.06478288769721985,0.09120582789182663,-0.08051660656929016,0.05065939202904701,0.03101908043026924,0.15292108058929443,-0.0023435140028595924,0.055315710604190826,-0.159644216299057,-0.024353841319680214,0.021376067772507668,0.051336899399757385,0.012112514115869999,0.01268626656383276,-0.10599089413881302,-0.07472985982894897};
static const float actor_encoder_feed_forward_0_bias[32] = {-0.10381097346544266,-0.004870036616921425,-0.020862728357315063,0.06361021101474762,0.019479699432849884,0.09201830625534058,0.066832035779953,0.018298152834177017,0.07072257995605469,0.06160709261894226,-0.18012641370296478,0.03751051053404808,0.029868198558688164,-0.00842340849339962,0.044345442205667496,0.01968388818204403,-0.05602775514125824,-0.08245288580656052,-0.05833812057971954,0.012713097035884857,0.08459766209125519,-0.08088628947734833,-0.009581359103322029,0.09183697402477264,0.053923312574625015,0.06700031459331512,-0.004699298646301031,0.025499971583485603,-0.009369784966111183,0.04207099601626396,-0.0642225593328476,0.03491934761404991};
static const float action_parameterization_distribution_linear_bias[4] = {0.04245681315660477,0.015705283731222153,0.10002566874027252,0.09011677652597427};



void networkEvaluate(struct control_t_n *control_n, const float *state_array) {
      ///////////////////////////////// NEIGHBOR OUTPUT CALCULATION ///////////////////////////////////////////
      float meanNeighbArr[8];
      meanNeighbArr[0] = 0.0f;
      meanNeighbArr[1] = 0.0f;
      meanNeighbArr[2] = 0.0f;
      meanNeighbArr[3] = 0.0f;
      meanNeighbArr[4] = 0.0f;
      meanNeighbArr[5] = 0.0f;
      meanNeighbArr[6] = 0.0f;
      meanNeighbArr[7] = 0.0f;

        for(int k = 0; k < NEIGHBORS; k++)
        {
          for (int i = 0; i < structure[0][1]; i++) {
              output_0[i] = 0;
              for (int j = 0; j < structure[0][0]; j++) {
                output_0[i] += kNearestArr[k][j] * actor_encoder_neighbor_encoder_embedding_mlp_0_weight[j][i];
              }
              output_0[i] += actor_encoder_neighbor_encoder_embedding_mlp_0_bias[i];
              //output_0[i] = tanhf(output_0[i]);
              output_0[i] = (output_0[i] < 0.0f) ? 0.0f : output_0[i];
          }
      
          for (int i = 0; i < structure[1][1]; i++) {
              output_1[i] = 0;
              for (int j = 0; j < structure[1][0]; j++) {
                  output_1[i] += output_0[j] * actor_encoder_neighbor_encoder_embedding_mlp_2_weight[j][i];
              }
              output_1[i] += actor_encoder_neighbor_encoder_embedding_mlp_2_bias[i];
              //output_1[i] = tanhf(output_1[i]);
              output_1[i] = (output_1[i] < 0.0f) ? 0.0f : output_1[i];
          }


          meanNeighbArr[0] = meanNeighbArr[0]+output_1[0];
          meanNeighbArr[1] = meanNeighbArr[1]+output_1[1];
          meanNeighbArr[2] = meanNeighbArr[2]+output_1[2];
          meanNeighbArr[3] = meanNeighbArr[3]+output_1[3];
          meanNeighbArr[4] = meanNeighbArr[4]+output_1[4];
          meanNeighbArr[5] = meanNeighbArr[5]+output_1[5];
          meanNeighbArr[6] = meanNeighbArr[6]+output_1[6];
          meanNeighbArr[7] = meanNeighbArr[7]+output_1[7];


        } 

        meanNeighbArr[0] /= NEIGHBORS;
        meanNeighbArr[1] /= NEIGHBORS;
        meanNeighbArr[2] /= NEIGHBORS;
        meanNeighbArr[3] /= NEIGHBORS;
        meanNeighbArr[4] /= NEIGHBORS;
        meanNeighbArr[5] /= NEIGHBORS;
        meanNeighbArr[6] /= NEIGHBORS;
        meanNeighbArr[7] /= NEIGHBORS;

          /////////////////// SELF_OUTPUT ///////////////////////////////////////////////////////////////////
          for (int i = 0; i < structure[2][1]; i++) {
              output_2[i] = 0;
              for (int j = 0; j < structure[2][0]; j++) {
                  output_2[i] += state_array[j] * actor_encoder_self_encoder_0_weight[j][i];
              }
              output_2[i] += actor_encoder_self_encoder_0_bias[i];
              //output_2[i] = tanhf(output_2[i]);
              output_2[i] = (output_2[i] < 0.0f) ? 0.0f : output_2[i];

          }
          
          for (int i = 0; i < structure[3][1]; i++) {
              output_3[i] = 0;
              for (int j = 0; j < structure[3][0]; j++) {
                  output_3[i] += output_2[j] * actor_encoder_self_encoder_2_weight[j][i];
              }
              output_3[i] += actor_encoder_self_encoder_2_bias[i];
              //output_3[i] = tanhf(output_3[i]);
              output_3[i] = (output_3[i] < 0.0f) ? 0.0f : output_3[i];
          }
          

          ////////////////////////////////////////////////////// FEED FORWARD /////////////////////////////////////////////

          for(int k = 0; k < structure[3][1]; k++ )
          {
            inputff[k] = output_3[k];
          }

          for(int k = 0; k < structure[1][1]; k++ )
          {
            inputff[k+16] = meanNeighbArr[k];
          }

          for (int i = 0; i < structure[4][1]; i++) {
              output_4[i] = 0;
              for (int j = 0; j < structure[4][0]; j++) {
                  output_4[i] += inputff[j] * actor_encoder_feed_forward_0_weight[j][i];
              }
              output_4[i] += actor_encoder_feed_forward_0_bias[i];
              //output_4[i] = tanhf(output_4[i]);
              output_4[i] = (output_4[i] < 0.0f) ? 0.0f : output_4[i];
          }
          
          for (int i = 0; i < structure[5][1]; i++) {
              output_5[i] = 0;
              for (int j = 0; j < structure[5][0]; j++) {
                  output_5[i] += output_4[j] * action_parameterization_distribution_linear_weight[j][i];
              }
              output_5[i] += action_parameterization_distribution_linear_bias[i];
          }
        control_n->thrust_0 = output_5[0];
        control_n->thrust_1 = output_5[1];
        control_n->thrust_2 = output_5[2];
        control_n->thrust_3 = output_5[3];	
    }

int main_nn(float *outdatav)
{
    control_t_n motorThrusts;
    
    point_t pt;
    estimatorKalmanGetEstimatedPos(&pt);

    ///////////////////////////////////////////// update k nearest information
    float ownX = pt.x;
    float ownY = pt.y;
    float ownZ = pt.z;

    float farX = kNearestArr[farthestNeighb][0];
    float farY = kNearestArr[farthestNeighb][1];
    float farZ = kNearestArr[farthestNeighb][2];

    float lastX = dronesInfo[lastAdded][0];
    float lastY = dronesInfo[lastAdded][1];
    float lastZ = dronesInfo[lastAdded][2];

    float distFarX = (farX-ownX)*(farX-ownX);
    float distFarY = (farY-ownY)*(farY-ownY);
    float distFarZ = (farZ-ownZ)*(farZ-ownZ);

    float distLastX = (lastX-ownX)*(lastX-ownX);
    float distLastY = (lastY-ownY)*(lastY-ownY);
    float distLastZ = (lastZ-ownZ)*(lastZ-ownZ);

    float distFar  = sqrtf(distFarX  + distFarY  + distFarZ);
    float distLast = sqrtf(distLastX + distLastY + distLastZ);



    if(distLast < distFar) // if last added information is closer than farthest k nearest neighbor, update
    {

      // update infrmation
      kNearestArr[farthestNeighb][0] = dronesInfo[farthestNeighb][0];
      kNearestArr[farthestNeighb][1] = dronesInfo[farthestNeighb][1];
      kNearestArr[farthestNeighb][2] = dronesInfo[farthestNeighb][2];

      farthestNeighb = 0; // set new farthest neighbor to calcuate index of farthest neighbor

      // calculate distance to k nearest at index 0
      farX = kNearestArr[farthestNeighb][0];
      farY = kNearestArr[farthestNeighb][1];
      farZ = kNearestArr[farthestNeighb][2];

      distFarX = (farX-ownX)*(farX-ownX);
      distFarY = (farY-ownY)*(farY-ownY);
      distFarZ = (farZ-ownZ)*(farZ-ownZ);

      distFar  = sqrtf(distFarX  + distFarY  + distFarZ);

      for(int k = 1; k < NEIGHBORS; k++) // iteratio over all k nearest to compare distance
      {
        if(distFar < sqrtf((kNearestArr[k][0]-ownX)*(kNearestArr[k][0]-ownX)  + 
                           (kNearestArr[k][1]-ownY)*(kNearestArr[k][1]-ownY)  + 
                           (kNearestArr[k][2]-ownZ)*(kNearestArr[k][2]-ownZ))) // if k is nearest than farthest, change farthest
        {
          farthestNeighb = k;

          farX = kNearestArr[farthestNeighb][0];
          farY = kNearestArr[farthestNeighb][1];
          farZ = kNearestArr[farthestNeighb][2];

          distFarX = (farX-ownX)*(farX-ownX);
          distFarY = (farY-ownY)*(farY-ownY);
          distFarZ = (farZ-ownZ)*(farZ-ownZ);

          distFar  = sqrtf(distFarX  + distFarY  + distFarZ);

        }
        
      }

    }

  
  for(int k = 0; k < NGHBRS; k++)
  {
    kNearestArr[k][0] =  clip(kNearestArr[k][0], -10.0f, 10.0f);
    kNearestArr[k][1] =  clip(kNearestArr[k][1], -10.0f, 10.0f);
    kNearestArr[k][2] =  clip(kNearestArr[k][2], -10.0f, 10.0f);

    kNearestArr[k][3] =  clip(kNearestArr[k][3], -6.0f, 6.0f);
    kNearestArr[k][4] =  clip(kNearestArr[k][4], -6.0f, 6.0f);
    kNearestArr[k][5] =  clip(kNearestArr[k][5], -6.0f, 6.0f);

  }
  //////////////////////////////////////////////////////// get self information
  state_t ownState = getOwnState();

    // Orientation
	struct quat q = mkquat(ownState.attitudeQuaternion.x, 
						             ownState.attitudeQuaternion.y, 
						             ownState.attitudeQuaternion.z, 
						             ownState.attitudeQuaternion.w);

	rot = quat2rotmat(q);
  
	// angular velocity
  sensorData_t sensors = getSensorData();
	float omega_roll  = radians(sensors.gyro.x);
	float omega_pitch = radians(sensors.gyro.y);
	float omega_yaw   = radians(sensors.gyro.z);

	// the state vector
	state_array[0] = ownState.position.x - ownTarget[0];
	state_array[1] = ownState.position.y - ownTarget[1];
	state_array[2] = ownState.position.z - ownTarget[2];
	state_array[3] = ownState.velocity.x;
	state_array[4] = ownState.velocity.y;
	state_array[5] = ownState.velocity.z;
	state_array[6] = rot.m[0][0];
	state_array[7] = rot.m[0][1];
	state_array[8] = rot.m[0][2];
	state_array[9] = rot.m[1][0];
	state_array[10] = rot.m[1][1];
	state_array[11] = rot.m[1][2];
	state_array[12] = rot.m[2][0];
	state_array[13] = rot.m[2][1];
	state_array[14] = rot.m[2][2];
	state_array[15] = omega_roll;
	state_array[16] = omega_pitch;
	state_array[17] = omega_yaw;


state_array[0]  = clip(state_array[0] , -10.0f, 10.0f);
state_array[1]  = clip(state_array[1] , -10.0f, 10.0f);
state_array[2]  = clip(state_array[2] , -10.0f, 10.0f);
state_array[3]  = clip(state_array[3] , -3.0f, 3.0f);
state_array[4]  = clip(state_array[4] , -3.0f, 3.0f);
state_array[5]  = clip(state_array[5] , -3.0f, 3.0f);
state_array[6]  = clip(state_array[6] , -1.0f, 1.0f);
state_array[7]  = clip(state_array[7] , -1.0f, 1.0f);
state_array[8]  = clip(state_array[8] , -1.0f, 1.0f);
state_array[9]  = clip(state_array[9] , -1.0f, 1.0f);
state_array[10] = clip(state_array[10], -1.0f, 1.0f);
state_array[11] = clip(state_array[11], -1.0f, 1.0f);
state_array[12] = clip(state_array[12], -1.0f, 1.0f);
state_array[13] = clip(state_array[13], -1.0f, 1.0f);
state_array[14] = clip(state_array[14], -1.0f, 1.0f);
state_array[15] = clip(state_array[15], -40.0f, 40.0f);
state_array[16] = clip(state_array[16], -40.0f, 40.0f);
state_array[17] = clip(state_array[17], -40.0f, 40.0f);



  networkEvaluate(&motorThrusts, state_array);

  outdatav[0] = motorThrusts.thrust_0;
  outdatav[1] = motorThrusts.thrust_1;
  outdatav[2] = motorThrusts.thrust_2;
  outdatav[3] = motorThrusts.thrust_3;
    
  return 1;
}

float clip(float val, float min, float max)
{
  if(val < min)
      {
        return min;
      }
      else if(val > max)
      {
        return max;
      }
      else
      {
        return val;
      }
}



void communicate()
{
  if (timer == ownPacket.id)
  {
    ownPacket.pos = getPosition();
    ownPacket.vel = getVeloc();
    P2PPacket packet;
    packet.port = 0;
    packet.size = sizeof(PacketData);
    memcpy(packet.data, &ownPacket, sizeof(PacketData));
    radiolinkSendP2PPacketBroadcast(&packet);
  }
}

void p2pcallbackHandler(P2PPacket *p)
{
    PacketData received;
    memcpy(&received, p->data, sizeof(PacketData));
    lastAdded = received.id;
    
    dronesInfo[received.id][0] = received.pos.x;
    dronesInfo[received.id][1] = received.pos.x;
    dronesInfo[received.id][2] = received.pos.y;
    
    dronesInfo[received.id][3] = received.vel.x;
    dronesInfo[received.id][4] = received.vel.y;
    dronesInfo[received.id][5] = received.vel.z;

}


Vector3 getPosition(void)
{
    point_t pt;
    estimatorKalmanGetEstimatedPos(&pt);
    return (Vector3){.x = pt.x, .y=pt.y, .z=pt.z};
} 

Vector3 getVeloc(void)
{
    return getVelocity();
}

uint8_t isHighLevel()
{
  return highlvl;

}

void  getThrusts(uint16_t* trsts)
{
  trsts[0] = thrustsToMotor[0];
  trsts[1] = thrustsToMotor[1];
  trsts[2] = thrustsToMotor[2];
  trsts[3] = thrustsToMotor[3];
}

void appMain() { 
  	// control->enableDirectThrust = true; // in the code of quadswarms they use this, why? (seems they changed the firmware)
  vTaskDelay(M2T(10000));
  p2pRegisterCB(p2pcallbackHandler);

  uint64_t address = configblockGetRadioAddress();
  uint8_t my_id    = (uint8_t)((address) & 0x00000000ff);
  ownPacket.id     = my_id;
  point_t ownPosition;
  estimatorKalmanGetEstimatedPos(&ownPosition);

  Vector3 ownVeloc = getVeloc();

  for(int k = 0; k < NUMQUADS; k++)
  {
    dronesInfo[k][0] =  8.0f;
    dronesInfo[k][1] =  k*1.5f;
    dronesInfo[k][2] =  0.0f;

    dronesInfo[k][3] = 0.0f;
    dronesInfo[k][4] = 0.0f;
    dronesInfo[k][5] = 0.0f;

  }
  
  for(int k = 0; k < NGHBRS; k++)
  {
    kNearestArr[k][0]  = ownPosition.x - dronesInfo[k][0];
    kNearestArr[k][1]  = ownPosition.y - dronesInfo[k][1];
    kNearestArr[k][2]  = ownPosition.z - dronesInfo[k][2];

    kNearestArr[k][3]  = ownVeloc.x;
    kNearestArr[k][4]  = ownVeloc.y;
    kNearestArr[k][5]  = ownVeloc.z;
  }
    

  while(1) {

    vTaskDelay(M2T(1));
    estimatorKalmanGetEstimatedPos(&ownPosition);
    //communicate();
    timer++;
    if(timer >= NUMQUADS)
    {
      timer = 0;
    }

    switch (state)
    {
    case 0: // do nothing
      break;
    case 1: // start 
            
      for(int k = 0; k < 4; k++)
      {
        thrustsToMotor[k] = (uint16_t)(UINT16_MAX*thrusts[k]*(mototrKValue));
      }
      // motorsSetRatio(0, thrusts[1]);
      // motorsSetRatio(1, thrusts[2]);
      // motorsSetRatio(2, thrusts[3]);
      // motorsSetRatio(3, thrusts[0]);

      break;
    case 2: // land

      if(ownPosition.z < 0.15f)
      {
        for(int k = 0; k < 4; k++)
        {
            thrustsToMotor[k] = (uint16_t)(UINT16_MAX*(0.0f));
        }
        state = 0;
      }
      break;
    default:
      break;
    }
    main_nn(thrusts);
    
    for(int k = 0; k < 4; k++)
    {
      if(thrusts[k] < -1.0f)
      {
        thrusts[k] = -1.0f;
      }
      else if(thrusts[k] > 1.0f)
      {
        thrusts[k] = 1.0f;
      }

      thrusts[k] += 1.0f;
      thrusts[k] /= 2.0f;

      thrustsInt[k] = (uint16_t)(UINT16_MAX*thrusts[k]);

    }

  }
}



PARAM_GROUP_START(ctrlnn)
PARAM_ADD(PARAM_UINT8, stt,    &state)
PARAM_ADD(PARAM_UINT8, id,     &(ownPacket.id))
PARAM_ADD(PARAM_FLOAT, kVal, &mototrKValue)
PARAM_ADD(PARAM_FLOAT, targetx, &(ownTarget[0]))
PARAM_ADD(PARAM_FLOAT, targety, &(ownTarget[1]))
PARAM_ADD(PARAM_FLOAT, targetz, &(ownTarget[2]))
PARAM_GROUP_STOP(ctrlnn)




LOG_GROUP_START(logNN)         
LOG_ADD(LOG_INT16, id, &(ownPacket.id))

LOG_ADD(LOG_FLOAT, t0, &(thrusts[1]))
LOG_ADD(LOG_FLOAT, t1, &(thrusts[2]))
LOG_ADD(LOG_FLOAT, t2, &(thrusts[3]))
LOG_ADD(LOG_FLOAT, t3, &(thrusts[0]))

LOG_ADD(LOG_UINT16, tint0, &(thrustsInt[1]))
LOG_ADD(LOG_UINT16, tint1, &(thrustsInt[2]))
LOG_ADD(LOG_UINT16, tint2, &(thrustsInt[3]))
LOG_ADD(LOG_UINT16, tint3, &(thrustsInt[0]))

LOG_ADD(LOG_FLOAT, px, &(state_array[0]))
LOG_ADD(LOG_FLOAT, py, &(state_array[1]))
LOG_ADD(LOG_FLOAT, pz, &(state_array[2]))
LOG_ADD(LOG_FLOAT, vx, &(state_array[3]))
LOG_ADD(LOG_FLOAT, vy, &(state_array[4]))
LOG_ADD(LOG_FLOAT, vz, &(state_array[5]))

LOG_ADD(LOG_FLOAT, r0, &(state_array[6]))
LOG_ADD(LOG_FLOAT, r1, &(state_array[7]))
LOG_ADD(LOG_FLOAT, r2, &(state_array[8]))
LOG_ADD(LOG_FLOAT, r3, &(state_array[9]))
LOG_ADD(LOG_FLOAT, r4, &(state_array[10]))
LOG_ADD(LOG_FLOAT, r5, &(state_array[11]))
LOG_ADD(LOG_FLOAT, r6, &(state_array[12]))
LOG_ADD(LOG_FLOAT, r7, &(state_array[13]))
LOG_ADD(LOG_FLOAT, r8, &(state_array[14]))

LOG_ADD(LOG_FLOAT, wx, &(state_array[15]))
LOG_ADD(LOG_FLOAT, wy, &(state_array[16]))
LOG_ADD(LOG_FLOAT, wz, &(state_array[17]))

LOG_ADD(LOG_FLOAT, px0, &(kNearestArr[0][0]))
LOG_ADD(LOG_FLOAT, py0, &(kNearestArr[0][1]))
LOG_ADD(LOG_FLOAT, pz0, &(kNearestArr[0][2]))
LOG_ADD(LOG_FLOAT, vx0, &(kNearestArr[0][3]))
LOG_ADD(LOG_FLOAT, vy0, &(kNearestArr[0][4]))
LOG_ADD(LOG_FLOAT, vz0, &(kNearestArr[0][5]))

LOG_ADD(LOG_FLOAT, px1, &(kNearestArr[1][0]))
LOG_ADD(LOG_FLOAT, py1, &(kNearestArr[1][1]))
LOG_ADD(LOG_FLOAT, pz1, &(kNearestArr[1][2]))
LOG_ADD(LOG_FLOAT, vx1, &(kNearestArr[1][3]))
LOG_ADD(LOG_FLOAT, vy1, &(kNearestArr[1][4]))
LOG_ADD(LOG_FLOAT, vz1, &(kNearestArr[1][5]))

LOG_ADD(LOG_FLOAT, px2, &(kNearestArr[2][0]))
LOG_ADD(LOG_FLOAT, py2, &(kNearestArr[2][1]))
LOG_ADD(LOG_FLOAT, pz2, &(kNearestArr[2][2]))
LOG_ADD(LOG_FLOAT, vx2, &(kNearestArr[2][3]))
LOG_ADD(LOG_FLOAT, vy2, &(kNearestArr[2][4]))
LOG_ADD(LOG_FLOAT, vz2, &(kNearestArr[2][5]))

LOG_ADD(LOG_FLOAT, px3, &(kNearestArr[3][0]))
LOG_ADD(LOG_FLOAT, py3, &(kNearestArr[3][1]))
LOG_ADD(LOG_FLOAT, pz3, &(kNearestArr[3][2]))
LOG_ADD(LOG_FLOAT, vx3, &(kNearestArr[3][3]))
LOG_ADD(LOG_FLOAT, vy3, &(kNearestArr[3][4]))
LOG_ADD(LOG_FLOAT, vz3, &(kNearestArr[3][5]))

LOG_ADD(LOG_FLOAT, px4, &(kNearestArr[4][0]))
LOG_ADD(LOG_FLOAT, py4, &(kNearestArr[4][1]))
LOG_ADD(LOG_FLOAT, pz4, &(kNearestArr[4][2]))
LOG_ADD(LOG_FLOAT, vx4, &(kNearestArr[4][3]))
LOG_ADD(LOG_FLOAT, vy4, &(kNearestArr[4][4]))
LOG_ADD(LOG_FLOAT, vz4, &(kNearestArr[4][5]))

